tree
version=v4
num_class=1
num_tree_per_iteration=1
label_index=0
max_feature_idx=11
objective=lambdarank
feature_names=Column_0 Column_1 Column_2 Column_3 Column_4 Column_5 Column_6 Column_7 Column_8 Column_9 Column_10 Column_11
feature_infos=[-0.054351999999999998:0.66259800000000002] [1:1000] [-0.28162679475421387:1] [0:0.72900399999999999] [1:1000] [0:1] [-0.055023000000000002:0.66943399999999997] [1:1000] [-0.17077846202431707:1] [-0.12914999999999999:0.69531200000000004] [1:1000] [-0.46444137573900657:1]
tree_sizes=3426 3407 3406 3430 3417 3416 3412 3405 3426 3407 3416 3437 3429 3435 3429 3443 3421 3429 3435 3422 3425 3421 3403 3411 3416 3425 3432 3408 3425 3433 3439 3427 3426 3439 3440 3437 3446 3438 3445 3445 3457 3441 3441 3473 3481 3457 3455 3484 3493 3474 3484 3487 3495 3493 3499 3490 3505 3525 3505 3530 3503 3497 3531 3507 3509 3513 3517 3518 3547 3538 3532 3565 3539 3573 3563 3558 3556 3566 3583 3575 3571 3582 3596 3599 3594 3580 3583 3602 3607 3591 3591 3602 3604 3612 3632 3606 3628 3645 3638 3655

Tree=0
num_leaves=31
num_cat=0
split_feature=4 3 8 10 1 11 5 3 4 0 7 0 5 4 10 11 1 10 8 9 10 0 11 8 8 11 11 0 9 0
split_gain=157.675 15.679 11.0949 9.09029 7.13321 5.08088 4.64929 5.30221 3.53704 3.99812 6.57835 3.34485 5.63246 3.19623 1.94709 9.15871 1.823 1.36044 1.3581 3.8913 0.827969 0.560553 2.28434 0.481149 6.63532 0.223336 2.94362 0.238484 1.69684 0.227085
threshold=192.50000000000003 0.43420400000000009 0.45837203710141011 112.50000000000001 244.50000000000003 0.22575735681832834 0.58558931539884929 0.33606000000000008 40.500000000000007 0.37658700000000006 576.50000000000011 0.27551300000000006 0.64536592521652281 240.50000000000003 232.50000000000003 0.32707283366429774 212.50000000000003 48.500000000000007 0.55829431935096552 0.12203950000000001 704.50000000000011 0.35314900000000005 0.69937571430997092 0.72077069061324239 0.59480662050538158 0.69937571430997092 0.7245552918265018 0.35314900000000005 0.35705600000000004 0.46960450000000004
decision_type=2 2 2 2 2 2 2 2 2 2 2 2 2 2 2 2 2 2 2 2 2 2 2 2 2 2 2 2 2 2
left_child=2 3 -1 6 13 -4 7 -2 23 11 -11 12 -10 -3 15 -5 17 -13 19 -19 21 -20 -23 24 -7 27 -27 28 -25 -28
right_child=1 4 5 14 -6 8 -8 -9 9 10 -12 16 -14 -15 -16 -17 -18 18 20 -21 -22 22 -24 25 -26 26 29 -29 -30 -31
leaf_value=-0.20000000000000001 -0.19999999999999984 -0.19999999999999929 -0.20000000000000001 0.19999999999999887 -0.19999999999999979 0.1888831741464026 -0.19999999999999979 0.18188835872121878 0.19204447176378242 -0.20000000000000007 0.19999999999999973 -0.20000000000000343 -0.19999999999999973 0.18388150984681312 -0.20000000000000001 -0.19999999999999996 -0.19999999999999751 0.20000000000000007 0.18670680158681149 -0.19999999999999948 -0.1999999999999939 -0.1999999999999991 0.19027357201957862 -0.19999999999999432 -0.19999999999999965 -0.20000000000000001 0.19231035951913389 0.19501201295980514 0.19999999999999973 0.13449287279733216
leaf_weight=0.93080571966129255 0.48701489018276278 0.24129813828039903 0.41102880926336993 0.71127855777740778 0.80002386920386914 4.2731771556427729 0.81457269802922372 1.4343016574857754 0.71922056842595228 0.97589516673906362 0.71046906709671021 0.10439981822855493 0.74715474573895335 2.1443924109917134 25.828664768727322 2.9321033969281416 0.14343155681854192 0.67415291070937999 7.842058960552091 0.38045983103802428 0.058231351547875287 0.19425787788350124 0.65793047286570072 0.12494423368480312 0.48896116949617852 0.20970809296704729 4.0580422751954757 12.331075237598268 0.70140135288238525 0.81589367360720633
leaf_count=4895 2013 507 1268 367 2124 823 4100 289 159 2152 48 723 3345 585 98433 8795 1271 49 2172 1033 201 660 51 316 1279 95 440 767 17 185
internal_value=-0.00178877 -0.153228 0.140943 -0.17416 0.0584013 0.149609 0.000206608 0.0850874 0.153577 0.112331 -0.0314791 0.133381 -0.00771195 0.145054 -0.190346 -0.12191 0.153957 0.159079 0.162902 0.0556969 0.175819 0.178336 0.10131 0.177259 0.148954 0.184649 0.166848 0.191527 0.13952 0.182632
internal_weight=72.9464 35.3937 37.5527 32.2079 3.18571 36.6219 2.73589 1.92132 36.2109 13.2077 1.68636 11.5213 1.46638 2.38569 29.472 3.64338 10.0549 9.91149 9.80709 1.05461 8.75248 8.69425 0.852188 23.0032 4.76214 18.2411 5.08364 13.1574 0.826346 4.87394
internal_count=139162 117213 21949 113997 3216 17054 6402 2302 15786 11864 2200 9664 3504 1092 107595 9162 6160 4889 4166 1082 3084 2883 711 3922 2102 1820 720 1100 333 625
is_linear=0
shrinkage=0.1


Tree=1
num_leaves=31
num_cat=0
split_feature=1 5 5 6 1 6 8 11 9 6 8 3 11 3 6 5 5 9 10 7 3 1 9 5 10 2 1 1 3 7
split_gain=124.795 23.4282 23.1981 23.1386 15.9122 15.2128 30.9063 15.3651 58.8484 12.9844 12.1715 13.0534 15.3095 12.7979 11.2734 11.0454 21.6059 10.7946 10.2164 10.0238 9.31119 14.2389 13.4434 31.241 15.521 9.19571 7.87924 19.3375 7.61935 15.0408
threshold=244.50000000000003 0.74150374951011189 0.70834378383097485 0.28698700000000005 4.5000000000000009 0.26818850000000011 0.58748225615872041 0.55149248612606827 0.18145750000000002 0.36755400000000005 0.6469669670655801 0.45642100000000002 0.82750183120102427 0.48547400000000007 0.37609900000000007 0.57408958715412683 0.58440191427317456 0.31042500000000006 232.50000000000003 216.50000000000003 0.56665050000000006 8.5000000000000018 0.31042500000000006 0.94858774832653625 120.50000000000001 0.76335907085789501 356.50000000000006 352.50000000000006 0.48254400000000003 344.50000000000006
decision_type=2 2 2 2 2 2 2 2 2 2 2 2 2 2 2 2 2 2 2 2 2 2 2 2 2 2 2 2 2 2
left_child=1 2 3 -1 -3 19 -7 8 14 -5 -9 17 13 -13 28 -2 18 -12 -17 -6 21 -15 24 -24 -23 -19 27 -18 29 -8
right_child=15 4 -4 9 5 6 7 10 -10 -11 11 12 -14 20 -16 16 26 25 -20 -21 -22 22 23 -25 -26 -27 -28 -29 -30 -31
leaf_value=-0.18357397441412382 -0.17095699496777508 0.12861572021601383 -0.19683011877505133 0.10637384229487652 -0.19606406722528547 -0.20565965136171524 -0.20070953198103947 -0.20000106144640573 -0.20244306638653944 -0.19426006811283431 -0.20069461112896333 -0.19821460929616508 -0.20452011303551393 -0.20547964913148961 -0.20248662547503524 0.14899646450722226 -0.17420400761003813 0.1682618001374131 -0.16750473181254999 0.12370515664663394 0.15870618336910425 -0.20405792568760683 -0.20428078123755553 0.13702346499288567 0.14724656622961543 -0.19821023993767317 -0.17035862542945157 0.16006459383969748 0.1727832386692362 0.19930382224245324
leaf_weight=4.4790543148410569 26.532950546767097 29.694420623301994 6.8813258247973854 13.698072742612565 1.0173000502400125 5.333261061256052 1.8151613983209272 1.6535813556110941 10.723721873626344 1.6049589285394166 0.89062078128336253 1.8641755315184116 2.3559322808869174 2.1414081840193857 1.1134380227304053 4.9303581229178262 4.4000854758487575 19.158815464674266 1.2858577668084761 26.956492288270965 9.0666281832964142 1.3700559855788075 5.1038576260325481 5.6516179199097678 15.325865020800846 0.71008256005006742 14.522593022964427 2.8526593427523039 10.252208946389144 1.9495807805215009
leaf_count=7559 63455 443 3632 2971 574 1428 781 795 2432 981 450 653 386 90 289 512 9501 457 3217 2546 111 116 680 39 162 138 34309 304 133 18
internal_value=0.0078809 0.0478696 -0.0386805 0.0163329 0.0628404 0.0471466 0.0283206 0.0420114 -0.0232362 0.0748438 0.0678477 0.0748074 0.0432949 0.0577022 0.103777 -0.124728 -0.0809077 0.139898 0.0835265 0.112076 0.0700426 0.0428779 0.0622516 -0.0249376 0.118419 0.155165 -0.127849 -0.042729 0.128106 0.00643834
internal_weight=235.336 180.812 26.6634 19.7821 154.148 124.454 96.48 91.1468 25.8541 15.303 65.2926 63.6391 42.8795 40.5236 15.1304 54.5245 27.9916 20.7595 6.21622 27.9738 38.6594 29.5928 27.4514 10.7555 16.6959 19.8689 21.7753 7.25274 14.017 3.76474
internal_count=139162 27864 15143 11511 12721 12278 9158 7730 3653 3952 4077 3282 2237 1851 1221 111298 47843 1045 3729 3120 1198 1087 997 719 278 595 44114 9805 932 799
is_linear=0
shrinkage=0.1


Tree=2
num_leaves=31
num_cat=0
split_feature=4 8 4 4 11 6 11 1 11 6 5 4 3 5 1 1 11 11 1 11 8 6 11 5 11 7 0 4 8 4
split_gain=226.792 30.1095 16.6399 20.7133 11.6889 11.1889 10.6799 10.2889 9.7063 9.67754 6.96293 5.90149 26.175 6.32303 5.75855 20.3935 7.10868 15.7083 4.03537 3.79362 18.0722 8.96095 8.4182 5.35352 3.41937 3.01411 14.5629 3.52852 2.9866 11.0231
threshold=276.50000000000006 0.45837203710141011 52.500000000000007 116.50000000000001 0.7245552918265018 0.26599100000000003 0.70746717738644838 356.50000000000006 0.73431708764738624 0.26477050000000008 0.64410619118268897 4.5000000000000009 0.53491200000000017 0.94858774832653625 508.50000000000006 504.50000000000006 0.58636718909597196 0.59007670163390258 244.50000000000003 0.63990053607528186 0.64010630872320651 0.33898900000000004 0.52726759821522828 0.77753539960076024 0.91026936283376758 344.50000000000006 0.34362800000000004 244.50000000000003 0.58511727893023946 28.500000000000004
decision_type=2 2 2 2 2 2 2 2 2 2 2 2 2 2 2 2 2 2 2 2 2 2 2 2 2 2 2 2 2 2
left_child=1 -1 11 5 14 9 7 10 -6 -4 -5 -3 13 18 15 16 -2 -18 24 20 22 -21 23 25 28 26 -12 -27 29 -13
right_child=4 2 3 6 8 -7 -8 -9 -10 -11 19 12 -14 -15 -16 -17 17 -19 -20 21 -22 -23 -24 -25 -26 27 -28 -29 -30 -31
leaf_value=-0.15397167738373449 -0.15683112921283185 0.13692052471270286 -0.175611237435364 -0.19085756406504512 0.14016787925689086 -0.17861441693825209 -0.17970367393063522 -0.14978955252891588 -0.17105514967115953 0.15427425357532579 -0.1749354993101257 0.099105708991444746 -0.20610054457841046 -0.23953237167655722 -0.15061487220134334 0.12696367087599811 0.14818564206044327 -0.17109133742285179 -0.19421617322003226 -0.1954770090815493 -0.17528331675417175 0.13982696387264534 -0.17021933348865514 -0.188630042252938 -0.20234925462752323 0.14453485365060226 0.14299266840919417 -0.18049365217124 0.11831176582567754 -0.20092713952301378
leaf_weight=5.5977200953057027 19.431356417830109 38.778170705307275 1.366721555590628 0.90554006828460742 2.9525927305221549 5.9604137517744675 1.7109917151392426 1.9646347087691527 1.5169428290682843 2.5456515809055418 1.9433904257603121 9.6155337795498763 2.8977306053275234 0.5398379584075873 54.631757844472304 3.6078696083277455 2.6922028592089182 3.6036338680278277 0.44997253889596223 0.83512304362375545 2.7945692940847939 17.475019594654441 1.161461045150644 0.60362519870977749 0.35681290028151025 15.61077878734795 5.5704721481306478 0.34130485681817013 50.969821603794117 1.4032113357097831
leaf_count=8564 25622 444 1224 631 180 4466 1106 2811 1320 35 1634 357 627 85 77078 386 108 2859 309 449 2436 326 1012 341 130 803 312 201 2739 567
internal_value=0.00702565 0.074134 0.0818353 0.0401978 -0.123037 -0.0923649 0.0659017 0.0744419 0.03454 0.0390343 0.083767 0.105939 0.0877995 0.101246 -0.131425 -0.0956868 -0.12691 -0.0345633 0.104176 0.089134 0.0660061 0.124534 0.0927311 0.10542 0.106329 0.112984 0.0607635 0.137581 0.108106 0.0608972
internal_weight=259.835 171.399 165.801 60.7897 88.4364 9.87279 50.9169 49.2059 4.46954 3.91237 47.2413 105.011 66.2329 63.3352 83.9668 29.3351 25.7272 6.29584 62.7954 46.3357 28.0256 18.3101 25.231 24.0696 62.3454 23.4659 7.51386 15.9521 61.9886 11.0187
internal_count=139162 31609 23045 17787 107553 5725 12062 10956 1500 1259 8145 5258 4814 4187 106053 28975 28589 2967 4102 7514 6739 775 4303 3291 3793 2950 1946 1004 3663 924
is_linear=0
shrinkage=0.1


Tree=3
num_leaves=31
num_cat=0
split_feature=1 4 11 5 6 6 4 4 4 9 9 2 8 9 7 7 4 9 11 9 7 6 9 3 8 8 5 11 0 11
split_gain=208.315 28.3606 13.0036 10.7637 19.7291 11.3929 8.45705 13.6948 7.6161 6.97522 5.82304 5.46089 5.33361 4.45066 4.41534 3.73525 2.97384 2.81919 25.9664 5.45024 3.29984 14.6816 4.77835 2.83927 2.56441 20.551 2.54573 11.51 2.49118 2.32795
threshold=244.50000000000003 332.50000000000006 0.7245552918265018 0.75910307293852008 0.28698700000000005 0.36755400000000005 192.50000000000003 188.50000000000003 116.50000000000001 0.33947750000000004 0.47546400000000005 0.69973198177514828 0.45837203710141011 0.11312850000000001 304.50000000000006 56.500000000000007 244.50000000000003 0.19427500000000003 0.49794937361504316 0.24090600000000004 48.500000000000007 0.35339350000000008 0.36560100000000006 0.41540500000000008 0.18223292260349658 0.17475637766058955 0.84252035660313729 0.7706256947664718 0.27673300000000006 0.67895260909760069
decision_type=2 2 2 2 2 2 2 2 2 2 2 2 2 2 2 2 2 2 2 2 2 2 2 2 2 2 2 2 2 2
left_child=1 3 6 4 -1 8 7 -2 -6 -4 12 14 -5 -14 15 -10 17 -15 -19 -20 -21 22 23 -22 25 -8 -25 -28 -17 -30
right_child=2 -3 9 10 5 -7 24 -9 11 -11 -12 -13 13 16 -16 28 -18 18 19 20 21 -23 -24 26 -26 -27 27 -29 29 -31
leaf_value=-0.15125314811734006 -0.13918853933357814 -0.14964246716120255 0.12270949596389043 -0.14974497599792613 -0.17491715185767354 -0.16366762176197558 -0.13760342085389715 0.12887846640459957 -0.18038576962560568 -0.14363674374149554 -0.20826547320459698 -0.17431449661695753 -0.17492077254822566 0.11839589174248484 -0.16832357538025444 -0.15680597467210042 -0.21883925621662625 -0.18284824249884291 -0.19473726264335844 0.10909046212394179 -0.19941123731346516 -0.19457159323138939 -0.15601269463986328 0.11529620406114072 -0.13820111569379356 0.12254654261349861 -0.20721243965800143 0.13936113336812572 0.11572331909423364 -0.15290835421093182
leaf_weight=5.2330137884709975 4.2108011821983373 5.6666146513307458 3.5408030061516902 0.91211119061335821 1.1491972401272565 2.1205129629233843 20.991100775077943 3.4814215778606012 0.4572013183496989 1.3612643383676184 0.65196061995811661 0.76926484610885282 0.61792156076989968 36.939417555578984 0.61580855748616059 0.34975518321153032 0.30309498892165621 3.4664187956368542 0.64216914074495335 69.970087771303952 0.32080441014842165 1.9734885352663685 0.77493276493623753 19.992872417671609 61.544341717322823 3.5501445224508634 1.3889864183729503 3.0901723133865744 23.469015826238323 0.32709289120975782
leaf_count=6058 5525 6121 363 1035 646 1475 29491 225 268 1280 231 477 595 1591 319 281 138 1618 500 1766 175 1046 396 1093 74029 385 495 29 1304 207
internal_value=0.00688114 0.070547 -0.110026 0.0776551 0.0275797 0.0595655 -0.118325 -0.0178641 0.0770089 0.0487473 0.0899005 0.0881491 0.0912851 0.0928613 0.0961552 0.102775 0.0940529 0.0947373 0.0861373 0.0956369 0.0975492 0.0682279 0.0885124 0.0961554 -0.127302 -0.09997 0.10003 0.0318887 0.108137 0.112031
internal_weight=279.882 181.202 98.6799 175.535 34.4909 29.2578 93.7778 7.69222 27.1373 4.90207 141.044 25.9881 140.392 139.48 25.2189 24.6031 138.862 138.559 101.62 98.1535 97.5113 27.5413 25.5678 24.7928 86.0856 24.5412 24.472 4.47916 24.1459 23.7961
internal_count=139162 27864 111298 21743 11035 4977 109655 5750 3502 1643 10708 2856 10477 9442 2379 2060 8847 8709 7118 5500 5000 3234 2188 1792 103905 29876 1617 524 1792 1511
is_linear=0
shrinkage=0.1


Tree=4
num_leaves=31
num_cat=0
split_feature=1 4 10 8 10 4 5 5 2 10 9 7 6 5 5 7 6 9 6 9 7 1 0 7 10 2 4 3 7 10
split_gain=183.999 23.1335 10.6973 8.72157 7.4362 7.28955 11.4254 5.86288 7.79114 4.8476 16.6129 4.57233 15.7185 8.31342 8.94048 7.35838 5.04144 3.69506 3.6321 3.54563 3.12748 3.03016 2.47179 2.13408 10.836 2.08204 1.48837 9.93405 4.13483 10.5487
threshold=244.50000000000003 332.50000000000006 52.500000000000007 0.43032260675173761 48.500000000000007 192.50000000000003 0.64536592521652281 0.81208155165611373 0.76335907085789501 232.50000000000003 0.16192600000000004 300.50000000000006 0.30798300000000006 0.78677074967397986 0.68382025987682071 184.50000000000003 0.28820800000000008 0.12530500000000003 0.41223150000000003 0.29968300000000009 580.50000000000011 204.50000000000003 0.27551300000000006 364.50000000000006 984.50000000000011 0.56500459969057892 4.5000000000000009 0.53491200000000017 4.5000000000000009 4.5000000000000009
decision_type=2 2 2 2 2 2 2 2 2 2 2 2 2 2 2 2 2 2 2 2 2 2 2 2 2 2 2 2 2 2
left_child=1 3 4 -1 -2 6 -4 8 11 10 -7 12 -5 14 -14 18 19 -9 21 20 22 25 -13 26 -25 -16 28 -28 29 -19
right_child=2 -3 5 7 -6 9 -8 17 -10 -11 -12 16 13 -15 15 -17 -18 23 -20 -21 -22 -23 -24 24 -26 -27 27 -29 -30 -31
leaf_value=-0.13266975671217809 -0.1342454169283154 -0.13798400914133191 0.11468536169635746 -0.15346482015323665 0.12176372677431989 0.12888007143101576 -0.12992912345859459 -0.18337839549013787 -0.16521459222446711 -0.12915227591786158 -0.13189549319548971 -0.14272638777049881 -0.16439202838205147 -0.17737187642584618 -0.13987006638378996 -0.18114546334198506 -0.14122115524007806 0.12085237091635587 -0.14476004796142894 -0.14554430833980114 -0.16897469706287266 -0.15983080414922912 0.11643293822754226 -0.20247997028872422 0.13896851689355291 0.10069675961815557 0.088287310660944487 -0.18503486663183702 0.11605419016119981 -0.21841412382991515
leaf_weight=2.0513946237042537 1.6937240040861059 5.3894472072133786 3.5261279457481569 3.9793909108848302 3.4369219241198152 3.3450375583488485 4.1646414565620944 0.49805564433336158 1.6348565091611806 73.522171467309818 9.0584794259630126 0.37459030654282699 1.5858353027142573 1.4527639222796995 0.36440540372861008 1.0495171557413403 0.89958404353819688 2.8522734246216706 0.65411082527134468 0.57196729234419663 0.40394881879910727 0.46454865217674424 21.000649026478641 1.4359220772748802 2.6350226402282715 28.243017468950711 61.760501103126444 1.359031882486305 40.483845709823072 1.3503435524180529
leaf_count=3165 1988 6121 478 3644 234 985 5155 341 1149 92504 9954 382 884 862 266 548 615 21 531 363 287 311 1223 498 1 2025 3645 592 313 77
internal_value=0.00661603 0.0661142 -0.103343 0.0723251 0.0372502 -0.111048 -0.0177762 0.0747274 0.0502231 -0.119396 -0.0615683 0.0559928 0.0345266 0.0566501 0.0671558 0.0790872 0.0908857 0.0883951 0.0882751 0.100227 0.106682 0.0935183 0.111891 0.089605 0.0185313 0.0976324 0.0922888 0.0824024 0.106253 0.0118426
internal_weight=281.242 182.495 98.7471 177.106 5.13065 93.6165 7.69077 175.054 62.6792 85.9257 12.4035 61.0443 37.7936 33.8142 32.3614 30.7756 23.2507 112.375 29.7261 22.3512 21.7792 29.072 21.3752 111.877 4.07094 28.6074 107.806 63.1195 44.6865 4.20262
internal_count=139162 27864 111298 21743 2222 109076 5633 18578 13090 103443 10939 11941 9071 5427 4565 3681 2870 5488 3133 2255 1892 2602 1605 5147 499 2291 4648 4237 411 98
is_linear=0
shrinkage=0.1


Tree=5
num_leaves=31
num_cat=0
split_feature=4 1 8 3 7 7 6 2 5 10 3 11 0 11 10 11 10 8 5 8 8 6 4 0 4 1 10 11 2 5
split_gain=188.791 19.3351 9.01321 6.4096 7.35288 13.6112 16.6771 13.2356 6.85206 6.38925 5.83021 5.43453 4.96305 4.14805 4.14575 14.9188 6.44226 3.77889 3.55143 3.15142 7.65589 4.30812 3.2064 11.9086 4.45559 10.3754 5.96739 4.76274 11.2641 3.49254
threshold=276.50000000000006 356.50000000000006 0.45837203710141011 0.50805650000000013 436.50000000000006 220.50000000000003 0.20233200000000004 0.56500459969057892 0.69878597070523185 400.50000000000006 0.50317400000000012 0.14730068659823106 0.44152800000000009 0.14272599426849111 268.50000000000006 0.30764331658609895 264.50000000000006 0.53428233625058585 0.69411995068133525 0.5690907830262163 0.62196852729691743 0.30676300000000006 20.500000000000004 0.43127400000000005 32.500000000000007 56.500000000000007 68.500000000000014 0.63990053607528186 0.69344238209453601 0.7497769441245753
decision_type=2 2 2 2 2 2 2 2 2 2 2 2 2 2 2 2 2 2 2 2 2 2 2 2 2 2 2 2 2 2
left_child=1 2 11 4 5 7 -7 -4 -9 -6 12 13 19 -1 15 -2 -17 -5 -18 -10 -21 -22 23 -23 -24 -26 -27 28 -28 -30
right_child=14 -3 3 17 9 6 -8 8 10 -11 -12 -13 -14 -15 -16 16 18 -19 -20 20 21 22 24 -25 25 26 27 -29 29 -31
leaf_value=-0.1266204184347037 0.12169645956828155 -0.12372369705187672 -0.13727892704807151 -0.18342452263378808 -0.14938333344095078 0.12427179720577018 -0.15904314368327513 -0.17064220575358302 0.1384092695216102 0.12591275507215957 -0.20479212410099459 -0.12896040177152776 -0.17793809508538377 0.33439678746877477 -0.12391656572944461 -0.12819255642687141 -0.12376364942774457 0.095464253575725411 0.3824606550004005 -0.15915839285521394 -0.15565150356953372 -0.19544515535532991 0.12697976601138458 0.12747555708314853 -0.15855571714673378 -0.15742586264833092 -0.15676993965576139 0.11376430671973439 0.1381986523121945 -0.14460361399902297
leaf_weight=0.31749844236764957 3.3054483444429961 5.3484574102330944 3.3142954347422338 0.48886112123727699 0.88611163396854209 3.038565462222321 6.5703526153229177 1.1853557777358208 7.6764727017143732 17.345116065931506 0.75198621361050655 3.463175228331238 0.76450366794597258 0.50654549803584814 71.860272685065866 13.684083943255242 0.21372107346542257 78.894422452081926 0.39420173806138337 1.4201876790029917 0.79024207848124106 1.870495507493614 17.832428194815293 2.9322637459263206 1.9606573522323767 1.0245120726758639 2.4226947716670137 19.732404403737746 4.2000444331206381 0.4873650682857259
leaf_count=827 397 7090 3060 125 629 90 4342 834 491 662 205 4221 351 16 91326 15580 261 2062 24 948 556 421 356 12 1302 625 1588 310 115 322
internal_value=0.00602984 0.0636447 0.0692159 0.0727137 0.0553585 0.0419908 -0.0694523 0.0576542 0.0675858 0.112532 0.0720073 -0.0740403 0.0753053 0.15677 -0.113264 -0.0697613 -0.114042 0.0937468 0.204493 0.0784104 0.0699862 0.0760972 0.079588 0.00170999 0.0874359 0.0637946 0.0794387 0.0884792 0.0183063 0.108795
internal_weight=274.683 185.225 179.877 175.589 96.2061 77.9748 9.60892 68.3659 65.0516 18.2312 63.8663 4.28722 63.1143 0.824044 89.4577 17.5975 14.292 79.3833 0.607923 62.3498 54.6733 53.2531 52.4629 4.80276 47.6601 29.8277 27.867 26.8425 7.1101 4.68741
internal_count=139148 31560 24470 19406 17219 15928 4432 11496 8436 1291 7602 5064 7397 843 107588 16262 15865 2187 285 7046 6555 5607 5051 433 4618 4262 2960 2335 2025 437
is_linear=0
shrinkage=0.1


Tree=6
num_leaves=31
num_cat=0
split_feature=4 1 8 5 1 9 1 9 5 4 9 5 1 2 9 9 0 8 11 7 1 0 4 4 1 4 6 8 3 3
split_gain=181.272 18.5911 8.17645 5.25263 11.08 5.17289 4.08099 3.32739 2.56422 13.9513 5.59639 4.96239 3.93407 11.912 2.95853 26.4373 9.88305 4.25366 2.57344 1.99433 1.83231 2.5244 1.80314 13.817 1.63688 1.56696 7.12856 1.55303 1.21687 9.65117
threshold=276.50000000000006 356.50000000000006 0.45837203710141011 0.69878597070523185 352.50000000000006 0.070709500000000022 296.50000000000006 0.068817500000000018 0.91680779033079929 8.5000000000000018 0.41540500000000008 0.89961108520432509 16.500000000000004 0.60830796949963084 0.25573700000000005 0.18951400000000004 0.30920400000000009 0.76233900622467543 0.48892297840209303 456.50000000000006 292.50000000000006 0.32458500000000007 576.50000000000011 572.50000000000011 244.50000000000003 4.5000000000000009 0.50024400000000013 0.18223292260349658 0.45642100000000002 0.47985800000000006
decision_type=2 2 2 2 2 2 2 2 2 2 2 2 2 2 2 2 2 2 2 2 2 2 2 2 2 2 2 2 2 2
left_child=1 2 5 4 -4 7 8 -1 9 -5 11 14 25 -14 15 16 -11 20 -16 24 21 -18 23 -2 28 -10 -27 -25 -20 -30
right_child=22 -3 3 6 -6 -7 -8 -9 12 10 -12 -13 13 -15 18 -17 17 -19 19 -21 -22 -23 -24 27 -26 26 -28 -29 29 -31
leaf_value=-0.12258347455660608 -0.11379669842015463 -0.12008547202400702 -0.14034372925783634 -0.19778536918838047 0.11705045186427859 -0.12264456033576923 -0.12664587467826377 0.26544184856268965 0.10581341077123346 -0.13894797972096587 -0.14563683399754501 -0.17872814399975429 0.124195213172415 -0.19633186622542714 -0.13861927806494387 -0.15133721168625466 -0.15317208146053082 -0.16724646069575877 0.10239302696489697 -0.13803453152713452 0.2851952829399102 0.10476264280409904 -0.12016333855070149 0.11551308771102263 -0.12026965241275576 -0.20079000320613558 0.11178311550682946 -0.12040024096166882 -0.14095569815026734 0.0920162034067733
leaf_weight=0.33178250433411349 28.62141911953222 5.4294240942690513 3.4575793723342931 1.95785323367454 3.2391555043868721 3.5020550336921588 1.0034583423985157 0.66183393076062202 48.673438942525536 1.8350608309265215 1.1743507958017279 0.77250178065150876 3.2013528121169648 1.8178447212558237 0.49790380743797769 5.4220131578622377 0.38427366071847302 0.58564716845285048 42.44390655006282 0.38296081474982102 0.55293356208130617 30.142696156864986 58.647902344353497 3.2490680578630413 0.36547798081301053 0.93820754787884553 3.2818275485187769 0.30526324769016344 1.9181750552961627 24.362040820298716
leaf_count=1016 33943 7090 2863 291 20 4025 1074 23 265 1823 678 275 27 378 337 3567 296 227 2593 275 12 1325 73175 93 366 177 30 377 1058 1449
internal_value=0.00631283 0.0622722 0.0676853 0.0710416 -0.0158443 -0.0655076 0.0744301 0.135875 0.075612 0.0668302 0.0715043 0.0738296 0.0927166 0.00810724 0.0756213 0.0535212 0.0866771 0.0997524 0.0879149 0.0895385 0.104784 0.101516 -0.109727 -0.0907039 0.0907999 0.100745 0.0422912 0.0952517 0.0919224 0.0750117
internal_weight=279.159 188.336 182.906 178.411 6.69673 4.49567 171.714 0.993616 170.71 112.798 110.84 109.666 57.9127 5.0192 108.893 38.9226 33.5006 31.6656 69.9705 69.4726 31.0799 30.527 90.8237 32.1758 69.0896 52.8935 4.22004 3.55433 68.7241 26.2802
internal_count=139148 31560 24470 19406 2883 5064 16523 1039 15449 14572 14281 13603 877 405 13328 7250 3683 1860 6078 5741 1633 1621 107588 34413 5466 472 207 470 5100 2507
is_linear=0
shrinkage=0.1


Tree=7
num_leaves=31
num_cat=0
split_feature=4 1 4 6 7 10 10 2 2 7 10 11 10 1 3 2 5 4 9 10 7 7 6 8 7 5 5 6 6 5
split_gain=176.091 17.9448 8.1148 5.18894 17.1828 11.6546 8.70656 8.07513 6.57084 4.53934 3.65806 11.9512 5.57349 3.25744 3.06102 2.7632 2.58976 2.54332 2.21597 2.007 1.94743 1.94228 2.32866 1.90108 1.38021 1.35317 1.2392 12.6153 4.116 3.83661
threshold=276.50000000000006 356.50000000000006 32.500000000000007 0.33361800000000003 436.50000000000006 80.500000000000014 400.50000000000006 0.60217095951464839 0.69973198177514828 708.50000000000011 268.50000000000006 0.30570226022490793 264.50000000000006 16.500000000000004 0.46398900000000004 0.712841804079412 0.69411995068133525 36.500000000000007 0.068817500000000018 16.500000000000004 220.50000000000003 216.50000000000003 0.33898900000000004 0.53815995696322083 184.50000000000003 0.69878597070523185 0.7497769441245753 0.37316900000000003 0.36755400000000005 0.78350335778851099
decision_type=2 2 2 2 2 2 2 2 2 2 2 2 2 2 2 2 2 2 2 2 2 2 2 2 2 2 2 2 2 2
left_child=1 2 -1 4 5 8 -6 -5 -4 14 11 -2 -13 -9 18 -10 -14 -15 -8 -19 21 22 -21 -20 25 -24 28 -28 -27 -29
right_child=10 -3 3 7 6 -7 9 13 15 -11 -12 12 16 17 -16 -17 -18 19 23 20 -22 -23 24 -25 -26 26 27 29 -30 -31
leaf_value=0.085754195883820231 0.10856126436617244 -0.11744099346760453 -0.13462697388698214 -0.13200020965361822 -0.12172385144450942 -0.13225229821144027 -0.1444229665327017 -0.15749991400597302 0.13816573156083048 -0.12962760677813792 -0.11736104548641429 -0.11910426500680911 -0.11718071161116106 -0.15647647904538969 -0.15998614033201075 -0.13442459378916055 0.30447346674794229 -0.13814906388996789 0.1060528609741281 -0.14854907645264734 -0.14003124862038921 0.26066524385816625 -0.14387935197057297 0.22154172428926497 -0.15349917860719242 0.11482336618244633 -0.16917037740441893 -0.1307954321968986 -0.12972299925999128 0.10482200041015773
leaf_weight=101.34633445669897 3.1886429016012725 5.4419849070254704 1.4589704218087707 1.9713979545049358 2.0596633349778157 9.6420460434164834 0.3320251470431782 0.59483561967499454 3.8089449198450893 0.86191432608757068 73.728674550540745 13.788141745724712 0.21101348765660155 0.45719408709555764 0.42515289213042606 0.41210455889813591 0.4703312017954886 0.41516602307092298 15.981558206724005 0.43264608085155387 0.38858773210085829 0.61919168045278539 0.2542290547862639 1.564917959505691 0.2418519725324576 18.631115242140371 1.9847454092232535 0.71841326053254562 0.71466053021140297 18.168485271977261
leaf_count=3624 387 7090 1241 1708 2092 8378 352 366 52 903 91326 15590 261 141 185 310 24 283 946 195 337 14 226 78 130 274 749 468 501 917
internal_value=0.00639019 0.061514 0.0668216 0.0434621 0.0153895 -0.065313 0.0736471 0.0659652 0.0483188 0.094643 -0.10757 -0.0666881 -0.105308 0.074912 0.105204 0.111553 0.173887 0.0781251 0.11151 0.0806447 0.0827996 0.0848728 0.0822274 0.116353 0.0846797 0.0861031 0.0875569 0.0706572 0.105789 0.0958597
internal_weight=280.315 188.928 183.486 82.1398 36.5473 15.3221 21.2252 45.5925 5.68002 19.1656 91.3868 17.6581 14.4695 43.6211 18.3037 4.22105 0.681345 43.0263 17.8785 42.5691 42.1539 41.7653 41.1461 17.5465 40.7135 40.4716 40.2174 20.8716 19.3458 18.8869
internal_count=139148 31560 24470 20846 14537 9981 4556 6309 1603 2464 107588 16262 15875 4601 1561 362 285 4235 1376 4094 3811 3474 3460 1024 3265 3135 2909 2134 775 1385
is_linear=0
shrinkage=0.1


Tree=8
num_leaves=31
num_cat=0
split_feature=4 1 2 2 3 0 5 6 10 5 10 11 10 9 10 11 3 6 7 9 10 4 9 3 2 9 10 2 10 7
split_gain=177.794 18.2977 6.16284 14.8054 6.20356 4.92719 4.31405 5.23774 4.28056 3.85018 3.54867 10.9457 5.29195 3.22997 2.93354 7.30914 9.76882 5.00614 3.67236 2.31496 1.77682 1.50501 4.61224 3.52859 10.4122 5.50251 2.63051 1.91403 1.64279 1.27177
threshold=276.50000000000006 356.50000000000006 0.69344238209453601 0.65864179275588697 0.37927250000000007 0.36999500000000002 0.83053802856288217 0.36267100000000002 796.50000000000011 0.80813989201613168 268.50000000000006 0.30570226022490793 264.50000000000006 0.33947750000000004 720.50000000000011 0.63990053607528186 0.44079600000000002 0.26818850000000011 184.50000000000003 0.28161600000000003 428.50000000000006 4.5000000000000009 0.41540500000000008 0.51342800000000011 0.84293666903828424 0.30798300000000006 16.500000000000004 0.91835363031078843 8.5000000000000018 48.500000000000007
decision_type=2 2 2 2 2 2 2 2 2 2 2 2 2 2 2 2 2 2 2 2 2 2 2 2 2 2 2 2 2 2
left_child=1 2 3 4 -1 6 7 8 9 14 11 -2 -13 -8 15 16 -6 20 -17 -14 -18 -4 23 26 -25 -26 -23 29 -27 -28
right_child=10 -3 21 -5 5 -7 13 -9 -10 -11 -12 12 19 -15 -16 18 17 -19 -20 -21 -22 22 -24 24 25 28 27 -29 -30 -31
leaf_value=-0.11911491733160125 0.10455227612132129 -0.11621560810675041 0.094682250315603303 -0.14051195733179797 -0.12329438155343381 -0.13511898815908727 0.10633723911605596 -0.12737712551343938 -0.12245685396076587 -0.1416766576132471 -0.11594658746761133 -0.11714644196917526 -0.13284494199250443 -0.16289887712466336 0.11734520910328983 0.10326838123797191 -0.11940050378653561 -0.12140006202791241 -0.11791597573967204 0.22982818348686795 0.10648313679501394 -0.15462318866679264 -0.13855291721613491 -0.16215289361059901 -0.18157678971554644 0.25531005497004128 0.10153340692781723 -0.15338463444271458 0.088575647861139681 0.071789723833799668
leaf_weight=1.9856415862450365 3.0961978025734451 5.6185742813395327 47.535726298228838 4.1166645514313123 4.6537363575771469 1.2639492278103706 21.030564830871302 1.6835382060380641 1.3473590273642901 0.93362874316517164 75.486949219484814 14.020003749756139 0.24005741695873517 0.45523186202626575 8.0573274166090396 15.818483129842207 0.36862406379077572 1.2875123342964796 0.78804426733404476 0.6595616873819381 6.2966054269345477 0.45759522786829521 1.0289010236738239 2.3905234782723692 0.74612951441667963 0.65154952742159356 30.382836297852919 0.33186703571118314 6.3505715461215004 27.284997393377125
leaf_count=3715 387 7090 409 2407 4116 545 956 1363 1171 614 91326 15590 231 156 306 396 267 836 651 54 149 284 501 686 128 4 1152 129 159 3370
internal_value=0.00673533 0.0615983 0.0669338 0.0434777 0.054959 0.0603611 0.0643004 0.0453691 0.0527222 0.0589003 -0.106429 -0.0665517 -0.10206 0.100633 0.0639248 0.0491908 -0.0082192 0.0591198 0.0927723 0.133051 0.0939905 0.0809655 0.0716005 0.0747527 0.0202927 0.0765816 0.0841982 0.0860824 0.10409 0.0874605
internal_weight=286.369 192.866 187.248 70.0869 65.9702 63.9846 62.7207 41.2349 39.5513 38.204 93.5028 18.0158 14.9196 21.4858 37.2703 29.213 12.6065 7.95274 16.6065 0.899619 6.66523 117.161 69.625 68.5961 10.1388 7.74825 58.4573 57.9997 7.00212 57.6678
internal_count=139148 31560 24470 17648 15241 11526 10981 9869 8506 7335 107588 16262 15875 1112 6721 6415 5368 1252 1047 285 416 6822 6413 5912 977 291 4935 4651 163 4522
is_linear=0
shrinkage=0.1


Tree=9
num_leaves=31
num_cat=0
split_feature=4 1 5 5 8 10 10 3 2 1 9 3 4 4 1 11 11 3 10 1 9 8 7 7 9 1 10 5 6 8
split_gain=161.992 16.9831 5.57794 10.9715 6.68615 5.52789 11.0203 4.65189 4.36901 4.55107 2.94718 2.72197 7.1896 4.40839 2.34961 1.88265 4.7585 3.3405 2.32019 2.22521 1.68145 1.33934 10.07 5.72163 2.84148 2.10568 11.3387 2.9275 1.35736 6.2171
threshold=276.50000000000006 356.50000000000006 0.74150374951011189 0.70834378383097485 0.45837203710141011 268.50000000000006 228.50000000000003 0.37927250000000007 0.38552259814511708 588.50000000000011 0.10183750000000001 0.40734900000000007 272.50000000000006 192.50000000000003 296.50000000000006 0.32018914577606666 0.3581548724834287 0.40832500000000005 448.50000000000006 244.50000000000003 0.47546400000000005 0.70992488045868363 120.50000000000001 88.500000000000014 0.36999500000000002 84.500000000000014 40.500000000000007 0.84914709673287947 0.35339350000000008 0.75483032390616178
decision_type=2 2 2 2 2 2 2 2 2 2 2 2 2 2 2 2 2 2 2 2 2 2 2 2 2 2 2 2 2 2
left_child=1 2 3 7 -4 6 -2 -1 9 -8 -6 13 -13 -9 15 18 -17 -18 -12 20 21 22 -19 28 25 26 -24 -27 -23 -30
right_child=5 -3 4 -5 10 -7 8 11 -10 -11 14 12 -14 -15 -16 16 17 19 -20 -21 -22 23 24 -25 -26 27 -28 -29 29 -31
leaf_value=-0.11754070983352745 -0.11499685025435698 -0.11404762190861489 -0.119518642184107 -0.11963853964686522 -0.1315202276517364 -0.11388906873561946 0.11518036768294981 0.10899728226087407 -0.11773694805458162 -0.1153684878378575 -0.15459069473823886 -0.11784215631757733 0.11310173611763451 -0.1159367776269352 -0.11899104452960428 -0.14164449720641156 -0.12471863891197288 -0.137093871996882 0.10577547073529668 -0.11691562010700832 -0.13769500421104292 0.10750066957034661 0.11514341601444347 -0.14969179262910967 -0.1224966898501752 0.093713211781173172 -0.13715538064918809 -0.1343284003159855 -0.15581399102621241 0.081592419504912819
leaf_weight=1.4876551687484667 11.569510766188616 5.4815515149384728 1.8164842684054736 4.579946960671804 0.6985868327319612 73.943945699604228 5.1256732869660473 11.591886794078164 1.4234355256194247 1.0279365238966418 0.34759327874053525 2.4870748866815111 2.9432772408472374 0.94211713550612408 0.62622672831639548 1.0478415159741405 0.85523510409984638 2.4414001186378291 22.301519972970709 0.61060272995382447 0.37266014330088992 19.734614924062043 5.350818593404254 1.0573564963415254 0.73239920928608526 28.023105284548368 2.670178911765106 0.57448984624352206 1.1205065846443165 70.883309064316563
leaf_count=2948 13258 7090 1756 3936 703 91326 305 501 1472 1227 144 1552 21 990 646 501 866 1257 661 573 217 324 132 422 392 1643 1277 254 488 2266
internal_value=0.00665434 0.059423 0.0645547 0.01961 0.0712524 -0.101489 -0.0536004 0.0523959 0.0401468 0.0766681 0.0734258 0.0664686 0.00733056 0.0920901 0.0743276 0.0750933 0.0706317 0.0722864 0.10178 0.0735478 0.0744225 0.0750187 0.0596704 0.0816002 0.0725317 0.0764324 0.0311535 0.0891321 0.084266 0.077898
internal_weight=283.869 190.778 185.297 24.032 161.265 93.0905 19.1466 19.452 7.57705 6.15361 159.448 17.9644 5.43035 12.534 158.75 158.124 135.475 134.427 22.6491 133.571 132.961 132.588 39.7924 92.7958 37.351 36.6186 8.021 28.5976 91.7384 72.0038
internal_count=139148 31560 24470 9948 14522 107588 16262 6012 3004 1532 12766 3064 1573 1491 12063 11417 10612 10111 805 9245 8672 8455 4955 3500 3698 3306 1409 1897 3078 2754
is_linear=0
shrinkage=0.1


Tree=10
num_leaves=31
num_cat=0
split_feature=4 1 11 11 4 11 8 11 1 3 0 4 6 4 6 8 4 7 9 9 11 6 0 2 0 9 6 9 6 6
split_gain=125.367 14.3437 6.49566 10.6086 4.40108 4.31414 4.35957 7.4275 2.34567 7.85535 6.14064 16.3716 6.60519 4.31553 6.43388 3.07631 2.79941 2.55674 1.97289 1.90986 1.74519 1.7404 1.40256 1.33821 1.28271 1.65898 8.03824 1.25696 1.2101 10.6386
threshold=276.50000000000006 356.50000000000006 0.56994241643046972 0.59007670163390258 416.50000000000006 0.91026936283376758 0.4600103066981398 0.14730068659823106 20.500000000000004 0.48254400000000003 0.35852050000000008 64.500000000000014 0.33361800000000003 192.50000000000003 0.24054000000000003 0.79153371870589362 12.500000000000002 484.50000000000006 0.3880615 0.10183750000000001 0.14272599426849111 0.23956300000000003 0.3670655000000001 0.76335907085789501 0.46960450000000004 0.34948700000000005 0.38952600000000004 0.28332500000000005 0.084503500000000023 0.08114650000000001
decision_type=2 2 2 2 2 2 2 2 2 2 2 2 2 2 2 2 2 2 2 2 2 2 2 2 2 2 2 2 2 2
left_child=1 5 28 4 27 6 7 20 9 -8 13 -12 -13 16 21 22 -10 18 19 -18 -1 -15 -14 -21 -11 -26 -27 -4 29 -2
right_child=2 -3 3 -5 -6 -7 8 -9 10 24 11 12 15 14 -16 -17 17 -19 -20 23 -22 -23 -24 -25 25 26 -28 -29 -30 -31
leaf_value=-0.11371500113177418 -0.11134350644610458 -0.1117014551683317 0.12341655331407836 -0.11142870746033598 -0.11147288053238447 -0.16236189839000603 -0.13800634743973647 -0.11485309085634061 -0.13900721951518746 0.09874961013321687 -0.1449562769965495 -0.12258218677914384 -0.11988274568966112 -0.11751557169070892 -0.11788690123362842 -0.12487913477277297 -0.11753146371513933 -0.12738108095148326 -0.12219850816633693 0.080378973051599245 0.12754830123679936 0.11477132812243676 0.089914828112477432 -0.13424415532372747 0.081865273510566022 0.10249394115916409 -0.19194011226349589 -0.11759249571274051 -0.11202575976612308 0.092190153829115815
leaf_weight=0.33973873907234464 19.480258340132426 5.1556307564023873 4.5936387397814524 6.8996428565587848 1.0776706574251873 0.8859063828131174 1.6096833256306116 3.6896070651710033 0.61597464233636756 31.648162911878899 5.3661490988452014 1.881658724858428 0.32570927997585108 0.36583867715671603 3.0223094964167103 0.72968934045638967 0.49532762914895911 0.61854694946668942 0.49485193425789376 71.430954009061679 2.5516941242385656 2.7261166837997735 14.71175373601727 0.29170280136167903 14.907024073763752 3.0052877375856033 1.3409494226798413 0.22709669929463405 55.578098936937749 2.9580511179519808
leaf_count=823 29606 7072 239 7405 1166 350 1001 4260 285 545 1705 943 209 429 2957 381 801 411 318 7305 16 21 1171 152 248 34 157 184 68603 402
internal_value=0.00140237 0.0525203 -0.0932803 -0.0272481 0.0712218 0.0577128 0.058915 -0.020807 0.0622871 0.07949 0.0535233 0.00800002 0.0545066 0.0666097 -0.0141313 0.0756405 0.0732857 0.0750689 0.0767911 0.0781546 0.0992002 0.0872873 0.0853706 0.0795061 0.086368 0.0660153 0.0116519 0.112063 -0.104112 -0.0845116
internal_weight=259.025 168.21 90.8145 12.798 5.89841 163.055 162.169 6.58104 155.588 52.5111 103.077 23.015 17.6488 80.0616 6.11426 15.7672 73.9474 73.3314 72.7128 72.218 2.89143 3.09196 15.0375 71.7227 50.9014 19.2533 4.34624 4.82074 78.0164 22.4383
internal_count=139199 31594 107605 8994 1589 24522 24172 5099 19073 1985 17088 4409 2704 12679 3407 1761 9272 8987 8576 8258 839 450 1380 7457 984 439 191 423 98611 30008
is_linear=0
shrinkage=0.1


Tree=11
num_leaves=31
num_cat=0
split_feature=4 1 10 11 4 2 10 8 11 2 0 7 3 1 4 5 3 3 0 10 1 1 7 3 6 10 1 2 3 3
split_gain=112.201 12.7468 10.1106 5.85136 6.20974 4.95901 3.62024 3.69951 6.75455 2.77556 8.92334 4.38304 4.33505 2.65873 2.19947 2.10078 1.80926 13.5339 4.31982 3.46821 8.39321 2.72029 2.47217 1.85492 9.01827 3.19126 1.99343 7.53454 6.06169 3.29859
threshold=276.50000000000006 356.50000000000006 268.50000000000006 0.59007670163390258 576.50000000000011 0.45482038823337739 4.5000000000000009 0.4600103066981398 0.14730068659823106 0.82075510964600928 0.42297400000000007 484.50000000000006 0.48254400000000003 588.50000000000011 4.5000000000000009 0.64410619118268897 0.45642100000000002 0.47985800000000006 0.32458500000000007 176.50000000000003 8.5000000000000018 28.500000000000004 32.500000000000007 0.45300300000000004 0.35119600000000006 764.50000000000011 72.500000000000014 0.62963037915044073 0.40637200000000007 0.44226100000000007
decision_type=2 2 2 2 2 2 2 2 2 2 2 2 2 2 2 2 2 2 2 2 2 2 2 2 2 2 2 2 2 2
left_child=1 6 3 4 5 13 -1 8 -8 10 11 14 -11 -2 -9 -16 21 -18 -19 20 -20 -17 -21 24 25 26 -23 28 -28 -30
right_child=2 -3 -4 -5 -6 -7 7 9 -10 12 -12 -13 -14 -15 15 16 17 18 19 22 -22 23 -24 -25 -26 -27 27 -29 29 -31
leaf_value=-0.16078448903194648 0.092549253738322457 -0.10995522388393016 -0.10987016218757628 -0.10997209373883601 -0.11149319437490304 -0.11298455570323639 0.096686693532338372 -0.15703875678170831 -0.11260579898374722 -0.12612158478293231 -0.13811114634325769 -0.12471892216503702 0.083287733737032923 -0.11153502758360674 -0.12110550473017652 -0.13138684084557214 -0.12792757863418716 -0.12883692273700006 0.12123391894774982 -0.13243217258625248 -0.1362871125507738 0.096666451784464869 0.09191494132577166 0.10304071252553258 -0.12766112206027855 -0.11701594415473622 -0.11481518420886497 -0.1275633762695666 0.090871944164293839 -0.12291665912833186
leaf_weight=0.77706185157876362 8.0033728813286871 4.8537725544301784 66.287927642581053 6.0691248879302284 3.2950101559981695 1.6466405931860197 2.7696746407309538 0.47997070290148158 3.4788912390358746 1.0101477165007953 2.4715585039230055 1.3519518111133937 46.254965172032826 0.69367214327212501 0.65406347019597788 0.67564442870207031 4.2095262577058739 1.1227731552207867 2.6026585102081325 0.50180367589928465 2.4636318233096972 21.904306904296391 23.190611988538876 13.710286961286327 2.3992255453485987 0.88857369823381205 1.6381823649280765 2.0633433973416677 22.83476981671993 0.74525867262855072
leaf_count=351 1438 7072 91383 6790 4862 2020 839 136 4253 647 940 873 969 1112 700 532 2235 402 3 112 932 1192 904 381 1836 800 2128 1269 1693 395
internal_value=0.00144313 0.0496985 -0.091174 -0.0282889 0.00805952 0.0461434 0.0545358 0.0555853 -0.019837 0.0586621 0.0496694 0.0541563 0.0788122 0.0762716 0.0565252 0.0575341 0.0586915 0.0399433 0.063592 0.0711047 -0.00399321 0.068251 0.0871633 0.070289 0.0617317 0.0708061 0.0741992 0.0561603 0.0711925 0.084115
internal_weight=251.048 165.053 85.9957 19.7078 13.6387 10.3437 160.199 159.422 6.24857 153.173 105.908 103.437 47.2651 8.69705 102.085 101.605 100.951 34.091 29.8815 28.7587 5.06629 66.8596 23.6924 66.1839 52.4737 50.0744 49.1859 27.2816 25.2182 23.58
internal_count=139199 31594 107605 16222 9432 4570 24522 24171 5092 19079 17463 16523 1616 2550 15650 15514 14814 4588 2353 1951 935 10226 1016 9694 9313 7477 6677 5485 4216 2088
is_linear=0
shrinkage=0.1


Tree=12
num_leaves=31
num_cat=0
split_feature=4 1 10 9 9 11 5 10 9 11 6 1 7 5 11 10 3 4 8 3 3 0 3 1 10 6 1 11 6 0
split_gain=101.286 11.486 9.73259 6.11756 8.28297 7.57618 2.98441 2.68425 2.76401 22.609 4.03667 3.80191 2.73133 2.35063 2.19272 2.16961 1.88149 10.2571 2.23556 1.74053 1.4478 7.50151 3.98768 3.54155 2.14492 10.3157 8.97995 2.89138 6.37312 1.57003
threshold=276.50000000000006 356.50000000000006 268.50000000000006 0.28332500000000005 0.28161600000000003 0.30570226022490793 0.64150946086894711 4.5000000000000009 0.25573700000000005 0.40331855040148196 0.37609900000000007 244.50000000000003 456.50000000000006 0.69878597070523185 0.48892297840209303 260.50000000000006 0.48254400000000003 112.50000000000001 0.64010630872320651 0.45642100000000002 0.45642100000000002 0.35070800000000008 0.47985800000000006 36.500000000000007 176.50000000000003 0.47595200000000004 24.500000000000004 0.69238479982447532 0.46008300000000008 0.37658700000000006
decision_type=2 2 2 2 2 2 2 2 2 2 2 2 2 2 2 2 2 2 2 2 2 2 2 2 2 2 2 2 2 2
left_child=1 6 3 4 5 -2 -1 -8 9 10 15 12 13 -10 -15 -9 17 -17 19 -19 23 -22 -23 -16 25 26 27 28 -24 -25
right_child=2 -3 -4 -5 -6 -7 7 8 11 -11 -12 -13 -14 14 20 16 -18 18 -20 -21 21 22 24 29 -26 -27 -28 -29 -30 -31
leaf_value=-0.11638614313232468 0.094973203435447726 -0.10859577687008484 -0.10849701410809874 -0.1090000560037535 0.12135402379382609 -0.11020309036416687 -0.14759141206838702 -0.12644382360317835 -0.11420241555585829 -0.12282239405368081 -0.13104815009268486 -0.10953950820355718 -0.11327844390562213 -0.12987833774913404 -0.12456239240476522 -0.12688863416869808 0.09283291035948471 0.084764463096717022 -0.11658472984988302 -0.12642458498937778 -0.12722895140415016 -0.1181639170969542 -0.17801337989499236 0.0889666655689174 0.0947254993472013 -0.18587343974717996 -0.12869406901022237 0.095276933690779816 0.090491266010909149 -0.12129257442061184
leaf_weight=1.0486949704354618 2.6094893880654144 4.598771142831537 62.66245409916155 6.1525084501481606 4.5176503133261567 5.7992169320350513 0.66507662751246144 0.57194501208141346 0.71136843774001945 7.7326213735504998 1.0535581117728714 1.2573540465673421 0.84812493924982746 0.55562253546668117 0.80508340959204261 2.858427379862408 19.275417053024285 19.945139011018917 0.59148521145107125 0.39803473104257037 2.0872489321045569 1.1513657583273005 1.3044193126261294 41.666979198751505 21.079267795896158 1.7024414760526259 2.1751578429248175 24.168336864444427 2.7426858684048057 0.35819136921781947
leaf_count=1706 399 7072 91383 6769 151 8903 343 526 557 5979 568 1296 747 287 511 2051 439 2847 538 222 792 726 204 2093 466 292 813 318 21 180
internal_value=0.00123179 0.0471747 -0.0894571 -0.0269224 0.0121438 -0.0465304 0.0517447 0.052877 0.053737 0.0350571 0.0623722 0.0632808 0.0654247 0.0669326 0.0682238 0.0670417 0.0696112 0.0507987 0.0750602 0.0806323 0.0693329 0.0588084 0.0659564 0.0831945 0.0699433 0.0536659 0.0670846 0.0821773 0.00394974 0.0871746
internal_weight=243.094 161.353 81.7413 19.0789 12.9264 8.40871 156.754 155.705 155.04 52.4266 44.694 102.614 101.356 100.508 99.7968 43.6404 43.0685 23.7931 20.9347 20.3432 99.2412 56.4109 54.3237 42.8303 53.1723 32.093 30.3906 28.2154 4.04711 42.0252
internal_count=139199 31594 107605 16222 9453 9302 24522 22816 22473 13170 7191 9303 8007 7260 6703 6623 6097 5658 3607 3069 6416 3632 2840 2784 2114 1648 1356 543 225 2273
is_linear=0
shrinkage=0.1


Tree=13
num_leaves=31
num_cat=0
split_feature=4 1 10 9 9 11 5 10 9 11 6 1 7 11 5 6 6 4 8 9 10 8 11 9 9 7 10 9 6 1
split_gain=91.6408 10.3856 9.58633 5.81463 8.12657 6.83983 2.78482 2.68783 2.60607 19.6538 3.72903 3.4087 2.43341 2.20631 2.14907 2.08659 5.72589 5.05173 2.23107 1.66075 1.62217 9.97451 1.45258 1.29313 3.63673 2.95556 1.42293 10.442 7.13834 1.94181
threshold=276.50000000000006 356.50000000000006 268.50000000000006 0.28332500000000005 0.28161600000000003 0.30570226022490793 0.64150946086894711 4.5000000000000009 0.25573700000000005 0.40331855040148196 0.37609900000000007 244.50000000000003 456.50000000000006 0.48892297840209303 0.69878597070523185 0.36511200000000005 0.32385250000000004 192.50000000000003 0.64010630872320651 0.068817500000000018 688.50000000000011 0.58511727893023946 0.500314639098145 0.26745600000000008 0.27673300000000006 32.500000000000007 188.50000000000003 0.31042500000000006 0.47595200000000004 68.500000000000014
decision_type=2 2 2 2 2 2 2 2 2 2 2 2 2 2 2 2 2 2 2 2 2 2 2 2 2 2 2 2 2 2
left_child=1 6 3 4 5 -2 -1 -8 9 10 15 12 13 -10 -15 16 17 18 19 -9 21 -21 -16 25 -25 -24 27 -26 29 -29
right_child=2 -3 -4 -5 -6 -7 7 8 11 -11 -12 -13 -14 14 22 -17 -18 -19 -20 20 -22 -23 23 24 26 -27 -28 28 -30 -31
leaf_value=-0.11463580880521745 0.08987616194842081 -0.10741723339777542 -0.10731134575453496 -0.10775738095218267 0.11994768494123131 -0.10881346116477851 -0.1469277457172958 -0.11410825582224238 -0.1332607478198613 -0.11957716695155957 -0.12920454344705753 -0.10820449539295383 -0.11170532744423052 -0.11271692795533411 0.12179916342550617 0.10246527826115433 -0.13147601325592831 -0.11486393828353665 -0.12086653321480133 -0.13081389471618821 0.093497514687199523 0.098919707077046337 -0.17755932316786902 -0.13069410007333893 -0.13598780303556843 0.10097715788627522 0.083086906023246532 0.078060640599595749 -0.17308691417062827 0.030608987063484073
leaf_weight=1.0327414054772805 2.5149837941862661 4.3645914084627284 59.602017319819424 5.7946899075177489 4.5603650016710153 5.5693282384891063 0.68902907148003478 0.46791362145450932 0.56437818810809304 7.2735468083992592 1.041434435697737 1.1841725871781807 0.79563759337179263 0.67549634375609358 4.4922735462896517 9.9518343287054432 1.6475053909816768 1.5746369718690392 0.60718614887446065 2.4807401382713596 18.595531419035979 7.9353400963591412 0.3927104533649971 1.0005758641054843 2.7840367591707027 12.728460081270894 21.477353901485913 41.706501888984349 1.2548668250092294 10.871959689189678
leaf_count=1706 399 7072 91383 6769 151 8903 343 813 311 5979 568 1296 747 533 91 151 827 1535 399 1649 912 337 85 432 1142 393 807 1642 297 1527
internal_value=0.000802496 0.0446884 -0.0878171 -0.0248054 0.0132091 -0.0470022 0.0490211 0.0501316 0.0510278 0.0327719 0.0577847 0.0604501 0.0624727 0.0638876 0.0650301 0.0622862 0.0502817 0.0597395 0.0688776 0.0727858 0.0758001 0.0442053 0.0662716 0.0635666 0.0587435 0.0926407 0.0611707 0.0528569 0.0626232 0.0682488
internal_weight=235.632 157.59 78.0414 18.4394 12.6447 8.08431 153.226 152.193 151.504 51.5757 44.3021 99.9284 98.7443 97.9486 97.3842 43.2607 33.3089 31.6613 30.0867 29.4795 29.0116 10.4161 96.7087 92.2165 79.0953 13.1212 78.0947 56.6174 53.8333 52.5785
internal_count=139199 31594 107605 16222 9453 9302 24522 22816 22473 13170 7191 9303 8007 7260 6949 6623 6472 5645 4110 3711 2898 1986 6416 6325 5847 478 5415 4608 3466 3169
is_linear=0
shrinkage=0.1


Tree=14
num_leaves=31
num_cat=0
split_feature=4 1 10 10 4 10 5 6 4 6 3 4 2 4 5 5 4 1 5 0 11 5 7 4 6 2 2 1 5 5
split_gain=82.2147 13.5336 4.81731 7.75953 3.27311 3.12187 2.6003 5.91229 4.13686 3.7563 7.69015 4.84759 3.67346 3.27612 3.20041 4.30809 6.28892 2.68045 12.0918 2.54852 2.48828 2.3066 2.27543 1.71523 6.31064 1.38927 6.43957 2.34597 1.8488 1.3765
threshold=332.50000000000006 356.50000000000006 268.50000000000006 228.50000000000003 576.50000000000011 4.5000000000000009 0.77493406280322763 0.36755400000000005 144.50000000000003 0.33898900000000004 0.40930200000000005 240.50000000000003 0.60217095951464839 244.50000000000003 0.77753539960076024 0.80431854321227891 128.50000000000003 44.500000000000007 0.64536592521652281 0.19061300000000003 0.25678646458406118 0.7497769441245753 300.50000000000006 72.500000000000014 0.50024400000000013 0.64535970359364325 0.69973198177514828 76.500000000000014 0.81631733195936429 0.84252035660313729
decision_type=2 2 2 2 2 2 2 2 2 2 2 2 2 2 2 2 2 2 2 2 2 2 2 2 2 2 2 2 2 2
left_child=1 5 3 -2 19 -1 7 9 14 10 17 -12 -11 -13 -8 16 -16 -7 22 -5 -17 -14 -19 25 -25 27 -27 -22 -28 -30
right_child=2 -3 -4 4 -6 6 8 -9 -10 12 11 13 21 -15 15 20 -18 18 -20 -21 23 -23 -24 24 -26 26 28 -29 29 -31
leaf_value=-0.15257504292071533 -0.10719716223832161 -0.10656096546557109 -0.1063750639753781 0.10421033921206063 -0.10855794238141701 0.096177427928516565 0.1117103969512868 -0.11498060260345443 -0.12352586092914936 -0.11875467361218089 -0.11351660424860044 0.10085281157284359 0.091082574428930391 -0.11052957333139289 -0.12198086488766423 -0.13112757247310342 0.085256221209801392 -0.11466977601285161 -0.11057464190471487 -0.10993067840169511 -0.14062735528441114 -0.11902037975223363 0.10133075276724426 -0.12517065652905368 0.11098001961636267 -0.12836572732001478 -0.13491473496168499 0.088515435456759925 0.086814692009046152 0.05209221657628435
leaf_weight=0.80067642917856474 7.7620124594541249 6.1752565995557225 53.475120030925609 4.4326851367950439 1.1644792919978497 7.4265400063595797 9.5544821243383904 2.7823522389517157 1.2914120975183312 0.9463258365867685 6.1349561427487043 2.3556583753088494 15.496397087583318 1.0645364000229163 3.3494840869097962 0.70101531338877876 2.6017995212459937 0.51749302051029999 4.5912725584930731 0.63542938162572671 0.4567308501573305 0.54075947415549386 8.4714173930697125 2.1670320762204929 2.3683226674329489 1.8822430503205385 0.48531921592075278 20.541148835909553 15.390290549257768 44.224727914552204
leaf_count=363 11602 10273 86886 386 1624 593 270 2145 938 705 3849 52 591 791 2028 431 233 1012 6264 715 165 251 1087 1185 26 765 199 1044 539 2187
internal_value=7.13785e-05 0.0386355 -0.0927056 -0.0404728 0.0426251 0.0443778 0.045393 0.0267039 0.0543497 0.0349953 0.0140421 -0.0603347 0.0727006 0.03506 0.0565644 0.0509691 -0.0313804 0.0478733 0.0214574 0.0773618 0.0565246 0.0839981 0.0888956 0.0580277 -0.00185483 0.0613006 0.0537695 0.0835313 0.0594737 0.0610562
internal_weight=229.787 162.318 67.4697 13.9946 6.23259 156.142 155.342 50.3277 105.014 47.5454 30.5619 9.55515 16.9835 3.42019 103.723 94.1681 5.95128 21.0067 13.5802 5.06811 88.2168 16.0372 8.98891 87.5158 4.53535 82.9805 61.9826 20.9979 60.1003 59.615
internal_count=139199 37986 101213 14327 2725 27713 27350 17340 10010 15195 13648 4692 1547 843 9072 8802 2261 8956 8363 1101 6541 842 2099 6110 1211 4899 3690 1209 2925 2726
is_linear=0
shrinkage=0.1


Tree=15
num_leaves=31
num_cat=0
split_feature=1 4 4 7 6 3 3 9 9 9 3 9 2 6 10 6 2 11 11 10 6 3 5 2 7 5 10 4 6 2
split_gain=68.881 8.37535 7.11111 6.45188 11.7603 3.69885 3.77957 3.36155 7.30192 10.5168 8.41104 3.16335 3.12562 2.40979 2.395 2.22612 2.07814 1.75205 1.82013 3.75929 3.43592 1.6863 2.95483 7.39869 5.96499 4.17525 2.98864 2.42626 1.86403 5.39323
threshold=244.50000000000003 332.50000000000006 616.50000000000011 436.50000000000006 0.23858600000000002 0.31457500000000005 0.31359900000000007 0.16009500000000002 0.25720200000000004 0.19427500000000003 0.46203600000000006 0.17327900000000004 0.52436875163358188 0.23956300000000003 724.50000000000011 0.37316900000000003 0.50937508571428591 0.48892297840209303 0.52726759821522828 284.50000000000006 0.26940900000000007 0.56665050000000006 0.84252035660313729 0.91835363031078843 48.500000000000007 0.87511274107134207 200.50000000000003 20.500000000000004 0.36267100000000002 0.74386897464191881
decision_type=2 2 2 2 2 2 2 2 2 2 2 2 2 2 2 2 2 2 2 2 2 2 2 2 2 2 2 2 2 2
left_child=1 7 3 -2 5 6 -5 15 9 10 -9 -12 14 -10 -6 16 -1 -15 -19 20 -20 22 26 24 25 -24 27 -22 -29 -30
right_child=2 -3 -4 4 12 -7 -8 8 13 -11 11 -13 -14 17 -16 -17 -18 18 19 -21 21 -23 23 -25 -26 -27 -28 28 29 -31
leaf_value=-0.11063842642913527 -0.10646111225385252 -0.10630529695405302 -0.10568313043375406 -0.10555220624514874 0.090257339543766024 -0.10595072231265823 0.097491036151242508 -0.12327405187704604 -0.11101090088295602 -0.11636558458691729 -0.13863041732441547 0.093584335317749678 -0.10896788735997734 -0.12597120614468912 -0.1064915781959859 -0.13547899230893812 0.083778168737904182 0.08746647131047193 -0.11749471366249396 -0.1224696149949015 -0.13550943235790536 0.078112653269019006 -0.14565112548510509 -0.17674154239537246 -0.12638137059985796 0.06819967439065272 -0.12187626872062358 0.076674606818265351 -0.11823629037978894 0.073349460857389345
leaf_weight=0.56101286434569075 11.552807940985074 3.727199687913525 38.810140591522213 1.6156911293510376 9.4727159149479068 10.682620448875239 2.1193422601209022 2.5964796392363523 0.92776537983445351 6.9667054776800788 0.62619604647625138 9.2856058620382083 0.98751183669082898 0.55638803855981578 0.6619336961302914 0.48826002638088439 27.521526204480324 12.526555982942225 1.2166886082850386 1.2957312842481759 0.60647509153932233 18.614352312753908 0.97736548515968635 1.8906610560370598 2.0888030807254827 13.858471799641846 0.89459704968612541 31.460479035915341 2.023932267969939 5.3622419742168859
leaf_count=1451 18633 6171 67077 4436 2092 16389 127 1930 867 5106 137 330 1291 349 1162 323 3517 502 616 481 100 236 230 168 754 414 360 2338 1107 477
internal_value=0.00151782 0.0416728 -0.0757597 -0.0444507 -0.0164006 -0.0760009 0.00965911 0.0455475 0.0378467 -0.0178992 0.0369434 0.0789137 0.0608591 0.0493594 0.0774069 0.0762136 0.0798943 0.0509528 0.0520134 0.0464821 0.0492534 0.0518619 0.0436027 0.0108765 0.0318354 0.0541115 0.0588638 0.0629621 0.0660607 0.0208518
internal_weight=221.976 146.073 75.9028 37.0926 25.5398 14.4177 3.73503 142.346 113.775 19.475 12.5083 9.9118 11.1222 94.3005 10.1346 28.5708 28.0825 93.3727 92.8164 80.2898 78.9941 77.7774 59.163 18.8153 16.9246 14.8358 40.3477 39.4531 38.8467 7.38617
internal_count=139171 27964 111207 44130 25497 20952 4563 21793 16502 7503 2397 467 4545 8999 3254 5291 4968 8132 7783 7281 6800 6184 5948 1566 1398 644 4382 4022 3922 1584
is_linear=0
shrinkage=0.1


Tree=16
num_leaves=31
num_cat=0
split_feature=4 1 11 0 0 2 2 6 6 8 7 1 8 7 6 0 0 3 7 11 3 7 4 6 9 0 0 0 8 7
split_gain=62.5264 11.5725 6.48141 5.18179 6.17531 3.92293 9.03762 4.48936 3.40105 6.63024 3.1602 6.49258 3.04247 2.96553 2.77832 2.23636 2.15332 7.41392 2.98712 7.201 2.41371 2.06423 6.88099 4.87792 3.19443 2.20986 7.91238 1.74193 1.64709 1.40244
threshold=332.50000000000006 356.50000000000006 0.56994241643046972 0.19354250000000003 0.18866000000000002 0.69344238209453601 0.65864179275588697 0.37609900000000007 0.23858600000000002 0.25141999531842746 440.50000000000006 220.50000000000003 0.41733614224355148 484.50000000000006 0.26086400000000004 0.36999500000000002 0.34362800000000004 0.44079600000000002 264.50000000000006 0.65011215841361836 0.40930200000000005 48.500000000000007 20.500000000000004 0.36755400000000005 0.34265100000000004 0.40393100000000004 0.33239750000000007 0.31262200000000007 0.24730627754524456 112.50000000000001
decision_type=2 2 2 2 2 2 2 2 2 2 2 2 2 2 2 2 2 2 2 2 2 2 2 2 2 2 2 2 2 2
left_child=1 5 -2 4 -4 6 7 8 9 28 11 14 -12 -14 -10 16 17 18 19 -16 -21 -7 -23 24 25 26 27 -24 -1 -18
right_child=2 -3 3 -5 -6 21 -8 -9 10 -11 12 -13 13 -15 15 -17 29 -19 -20 20 -22 22 23 -25 -26 -27 -28 -29 -30 -31
leaf_value=-0.10664980239614408 -0.097328953393433476 -0.10506748069740578 -0.10463313410183808 -0.1054031091011623 0.12514897444639098 0.065477468338225528 -0.11952843825450493 -0.11533512618519529 -0.1161140060700703 -0.10876933394751927 0.40065434253184373 -0.10799559798919156 0.10377197474012795 -0.1119808679904554 -0.11554427358084124 -0.11496258840375771 -0.11775027310715069 -0.12060770771973713 0.10652740240630139 0.09343752417221679 -0.13103533175705817 -0.13391639875692143 -0.12029527518843737 -0.12660241283512294 -0.1171719447942447 0.091139868167900137 -0.11888333151428032 0.095163009251523656 0.1103363301648983 0.0948192540630617
leaf_weight=0.40018036152468939 52.389140864019282 5.6241017752327016 1.6865793887991438 3.1950166054302827 3.8153561629005708 58.272765914385673 4.2279866894241414 1.9907357355696138 1.0172419301816251 4.1589937307871878 0.32185571792069723 2.953465436352416 8.6993471466121228 0.68741324509028423 2.7123487973003737 0.78571944526629423 0.3188179872231548 2.6357365028816266 7.566099204006604 6.4100063859950751 0.51771366235334415 2.2820916438358863 0.39706253819168491 1.5219476775382634 1.0002841351088125 13.780526519112753 2.6434734895592555 6.8261384394718334 2.7802942771231756 11.714778254157862
leaf_count=1055 93267 10370 2869 4755 172 2351 2598 1559 738 5636 46 3321 342 664 1997 315 111 1024 406 238 175 718 279 874 496 536 1529 330 35 365
internal_value=0.00141122 0.0357037 -0.0840573 -0.0041105 0.0547109 0.0411034 0.0214215 0.0321261 0.0375948 -0.0256534 0.0476121 0.0341682 0.0983378 0.0879719 0.0466354 0.0517043 0.0558125 0.0355715 0.0594959 0.0225828 0.0766625 0.0546972 0.0326177 0.0471403 0.0578686 0.0652729 0.0291452 0.0833192 0.0830342 0.0891874
internal_weight=213.333 152.247 61.0861 8.69695 5.50194 146.623 59.8987 55.6707 53.68 7.33947 46.3405 36.6319 9.70862 9.38676 33.6785 32.6612 31.8755 19.8419 17.2062 9.64007 6.92772 86.7243 28.4515 26.1694 24.6475 23.6472 9.86667 7.2232 3.18047 12.0336
internal_count=139171 38108 101063 7796 3041 27738 20625 18027 16468 6726 9742 8690 1052 1006 5369 4631 4316 3840 2816 2410 413 7113 4762 4044 3170 2674 2138 609 1090 476
is_linear=0
shrinkage=0.1


Tree=17
num_leaves=31
num_cat=0
split_feature=4 10 0 5 7 0 0 5 9 9 9 3 9 7 6 4 8 8 4 10 2 11 6 8 5 10 10 10 2 10
split_gain=56.3085 8.55711 7.39094 5.69192 6.63511 5.59589 7.28183 4.75907 3.14303 4.37236 9.72692 5.31682 2.12471 2.02256 1.87368 1.74371 1.57852 7.41458 4.00252 3.34572 2.54627 2.38265 1.5156 1.75542 1.67722 1.45699 4.39548 1.32346 3.81773 2.8015
threshold=332.50000000000006 268.50000000000006 0.27551300000000006 0.64536592521652281 4.5000000000000009 0.19354250000000003 0.16998300000000002 0.64150946086894711 0.16009500000000002 0.25720200000000004 0.19427500000000003 0.46203600000000006 0.17327900000000004 456.50000000000006 0.37316900000000003 616.50000000000011 0.57577802397449884 0.6469669670655801 64.500000000000014 284.50000000000006 0.60217095951464839 0.65519350848338676 0.20587200000000003 0.41264873101008742 0.68382025987682071 280.50000000000006 204.50000000000003 100.50000000000001 0.69973198177514828 80.500000000000014
decision_type=2 2 2 2 2 2 2 2 2 2 2 2 2 2 2 2 2 2 2 2 2 2 2 2 2 2 2 2 2 2
left_child=2 5 3 7 -5 6 -2 -1 14 10 11 -10 -13 16 22 -8 18 -18 -11 20 -19 -20 -4 -24 -25 26 27 28 -22 -30
right_child=1 -3 8 4 -6 -7 15 -9 9 13 -12 12 -14 -15 -16 -17 17 19 21 -21 25 -23 23 24 -26 -27 -28 -29 29 -31
leaf_value=-0.1054847024709797 -0.10466448406782003 -0.10416760510174841 -0.11141696514609618 0.10147880180386126 -0.1069406700532454 -0.10505039557581455 0.10462737802694938 0.10068682822025521 -0.11380971948487506 -0.1253465143265908 -0.11289818306536713 -0.12296766152544546 0.08253917649725917 -0.10627392263095779 -0.12504746601577935 -0.10538034436977513 -0.11421101486102302 -0.11744092247716038 0.097453668207300698 -0.11867479913138096 -0.11566364915377783 -0.1101870487786971 0.27548944984010443 -0.11292455189758249 0.080869876682454669 0.11065300996921804 -0.14054397046469955 0.070724533265569253 0.051397953397454732 -0.13453124532216829
leaf_weight=1.4842285577324243 2.7302849291008879 43.453120551304892 0.41669208463282004 1.8431182455969963 8.9190248844097351 4.4426201282185493 5.9275416352320462 4.5574456353206187 1.8296232770080703 0.92979525774717231 6.0607545912207561 0.53134652855805953 9.4605453005060536 0.88038238690933113 0.46404624631395464 0.42362480127485458 2.9937322110636151 0.89834945573238556 13.428679641860068 1.2013148993719358 1.5086550122941833 0.57634842226980332 0.45506687759189191 0.45504788577091204 24.019927525136154 3.9841994277667245 1.2089192623388942 23.12236190692056 33.376429635973182 0.83055913355201383
leaf_count=3689 5857 86706 456 41 14583 7075 690 223 1506 352 4826 169 381 1124 363 735 1726 639 693 606 796 419 76 392 2001 11 322 978 1558 178
internal_value=0.00171863 -0.0825476 0.0347313 -0.02764 -0.0712469 -0.013082 0.0319087 0.0500377 0.0428791 0.0350474 -0.00989527 0.0429131 0.0716108 0.0445092 0.0740781 0.0906198 0.0460884 0.0397187 0.0755698 0.0466871 0.0497466 0.0889086 0.0777237 0.0808851 0.0772668 0.0520922 0.0482066 0.0520848 0.0400174 0.0468835
internal_weight=202.414 56.9772 145.437 16.8038 10.7621 13.5241 9.08145 6.04167 128.633 102.822 17.8823 11.8215 9.99189 84.9397 25.8108 6.35117 84.0593 69.1245 14.9348 66.1308 64.9295 14.005 25.3467 24.93 24.475 64.0311 60.0469 58.838 35.7156 34.207
internal_count=139171 101063 38108 18536 14624 14357 7282 3912 19572 16284 6882 2056 550 9402 3288 1425 8278 6814 1464 5088 4482 1112 2925 2469 2393 3843 3832 3510 2532 1736
is_linear=0
shrinkage=0.1


Tree=18
num_leaves=31
num_cat=0
split_feature=1 4 4 7 6 4 4 9 6 9 9 0 2 3 5 1 1 6 8 8 4 11 3 8 6 2 2 11 11 3
split_gain=51.9011 6.18592 6.11963 5.36858 9.40529 3.13345 2.83481 2.50739 4.01419 2.90275 8.65853 4.63068 2.4163 1.92309 1.91809 1.74757 1.7276 1.40401 1.32971 6.75497 3.41081 2.09497 1.95016 1.30903 1.23298 1.12335 1.09226 1.04912 1.66311 1.05075
threshold=244.50000000000003 332.50000000000006 616.50000000000011 436.50000000000006 0.23858600000000002 572.50000000000011 576.50000000000011 0.16009500000000002 0.23956300000000003 0.25720200000000004 0.19427500000000003 0.34826700000000005 0.52436875163358188 0.51342800000000011 0.76935682791627424 212.50000000000003 712.50000000000011 0.37316900000000003 0.57577802397449884 0.6469669670655801 64.500000000000014 0.65519350848338676 0.40637200000000007 0.44854808961311043 0.27185100000000006 0.50937508571428591 0.56500459969057892 0.500314639098145 0.52476342907421569 0.40930200000000005
decision_type=2 2 2 2 2 2 2 2 2 2 2 2 2 2 2 2 2 2 2 2 2 2 2 2 2 2 2 2 2 2
left_child=1 7 3 -2 5 -5 -7 15 -9 10 11 -10 16 14 -13 17 23 25 20 -20 -11 -22 -21 -6 -25 -1 -24 -28 -29 -30
right_child=2 -3 -4 4 12 6 -8 8 9 18 -12 13 -14 -15 -16 -17 -18 -19 19 22 21 -23 26 24 -26 -27 27 28 29 -31
leaf_value=-0.10720260904292243 -0.10452334216852388 -0.10430916546784263 -0.10401559672472876 -0.10430558695267539 -0.1072955874227014 0.088714566790981539 -0.10399510298449986 -0.10670402370206762 -0.11526477338405611 -0.11733253717814703 -0.11290609073832598 -0.11338081825951636 -0.10711563713414834 -0.1406093719832586 0.092313219578740932 -0.11191381705415737 -0.10539895863453207 -0.11840376450057054 -0.11307367959704046 -0.11902863942159039 0.090411963845382221 -0.10894444701131256 -0.11776954814803031 0.098458039001155295 -0.10456149538063489 0.075243773212103349 0.092718333550580942 -0.13163482843377441 0.097154567207705045 0.041323367643698629
leaf_weight=0.34182028146461618 9.5555197397479805 3.0367247520480296 31.891100537613966 8.9284444338991324 0.34760487987659416 1.901152933656703 1.275448980333749 2.0211079931468694 1.533727389905837 0.90963979391381045 4.9755539394973303 0.47850017604650652 0.81977483298396769 0.40727036003954786 8.6225310465088096 0.53730629640631278 0.51710566849215034 0.38908260187599708 2.8654508733889079 0.72803941299207409 13.3527040836052 0.54879587964387688 0.4070066527929147 7.9391693390207347 0.31085605587577436 26.563011212158017 4.5786590253119348 0.53998915228294109 3.584219205833505 56.634575021511409
leaf_count=1125 18633 6171 67077 18124 439 256 2572 2628 1104 391 4030 266 1291 81 261 676 978 306 1660 551 750 439 193 1219 618 3184 211 146 44 3747
internal_value=0.00128121 0.0367776 -0.0731128 -0.0419205 -0.0147782 -0.0739582 0.011339 0.0400728 0.0328255 0.0356409 -0.00337755 0.0459762 0.0573317 0.071985 0.0814986 0.0666825 0.072122 0.0701984 0.0430679 0.0372581 0.0702664 0.0825419 0.0437385 0.082799 0.0908084 0.0729258 0.045541 0.0465583 0.0430798 0.0446464
internal_weight=196.542 133.056 63.4862 31.5951 22.0396 12.105 3.1766 130.019 102.188 100.167 16.0176 11.042 9.93451 9.5083 9.10103 27.8312 9.11474 27.2939 84.1491 69.3379 14.8111 13.9015 66.4725 8.59763 8.25003 26.9048 65.7444 65.3374 60.7588 60.2188
internal_count=139171 27964 111207 44130 25497 20952 2828 21793 16502 13874 5742 1712 4545 608 527 5291 3254 4615 8132 6552 1580 1189 4892 2276 1837 4309 4341 4148 3937 3791
is_linear=0
shrinkage=0.1


Tree=19
num_leaves=31
num_cat=0
split_feature=4 1 10 0 0 9 6 2 9 8 2 9 9 6 2 1 8 4 4 4 9 11 0 8 8 5 10 11 10 10
split_gain=46.0699 8.62851 7.98546 4.97056 6.25336 2.13901 4.56596 3.18983 2.43508 2.40812 6.16485 2.53202 6.41471 4.2747 1.60693 4.88661 2.01615 1.51783 1.4674 1.36699 1.33521 3.87535 2.36985 1.14615 5.03732 2.9833 2.78759 1.56922 1.38014 4.78956
threshold=332.50000000000006 356.50000000000006 268.50000000000006 0.19354250000000003 0.16998300000000002 0.16009500000000002 0.23858600000000002 0.50937508571428591 0.17327900000000004 0.4750000287182396 0.56500459969057892 0.25720200000000004 0.19427500000000003 0.36511200000000005 0.52436875163358188 156.50000000000003 0.4600103066981398 256.50000000000006 616.50000000000011 144.50000000000003 0.14898700000000004 0.2717070992757043 0.33044400000000007 0.57577802397449884 0.6469669670655801 0.81631733195936429 284.50000000000006 0.65519350848338676 280.50000000000006 204.50000000000003
decision_type=2 2 2 2 2 2 2 2 2 2 2 2 2 2 2 2 2 2 2 2 2 2 2 2 2 2 2 2 2 2
left_child=1 5 3 4 -2 7 -7 -1 -8 19 -11 12 13 -12 -9 16 -16 23 -6 -10 21 22 -18 25 -25 27 28 -13 29 -26
right_child=2 -3 -4 -5 18 6 8 14 9 10 11 17 -14 -15 15 -17 20 -19 -20 -21 -22 -23 -24 24 26 -27 -28 -29 -30 -31
leaf_value=-0.10661800910910804 -0.10370938309531573 -0.10362719074444382 -0.10348142906636917 -0.10402071343094649 0.1016130604055239 -0.10524650007336807 -0.11373663262503086 0.10950207883909968 -0.11220708520840997 -0.10885872579917909 -0.11811005304201541 0.091762259931368842 -0.11157107181572967 0.08127779993474632 -0.11493352305461764 -0.11284337804779504 -0.11256633227156516 -0.10816870851329335 -0.10420444339388873 0.1010062602040037 0.099446047198093399 -0.12855364434356745 0.080335703539186509 -0.11109924859757117 0.045465200140295571 -0.13188470252816886 -0.11722718068062228 -0.10925901738326843 0.10503889655394294 -0.14280792855031052
leaf_weight=1.1215920297254367 2.3686661198153143 4.6121548042283385 38.095161134086084 3.8551280830870374 5.519161946605891 2.4857658064283887 1.134482910943915 6.4006060268729952 0.31535332044586439 3.1168377471622071 1.3089278972474838 10.276495696394699 4.0144127617240883 6.0228617331013083 0.59997967258096352 1.6519743689277664 0.68243939377134921 0.68001208524219592 0.36960260744672258 6.4724809375475161 9.1565617981832457 1.1191847664304067 9.5366149836627283 2.2238320442265822 58.165977003896842 0.67980684293434102 1.081132115330546 0.40357993060024533 3.577803556690923 1.3833335633971717
leaf_count=2736 5857 10370 86706 7075 690 3791 758 311 230 3194 719 480 3539 240 620 1627 548 708 735 370 342 641 445 1405 3633 288 457 307 12 337
internal_value=0.00104882 0.0308494 -0.0809936 -0.0102671 0.0335034 0.0354914 0.0286438 0.0588704 0.0319437 0.033601 0.0294013 0.0341991 -0.00995619 0.0456815 0.0652384 0.0527832 0.0657538 0.0405835 0.0886951 0.0911007 0.0710434 0.0481059 0.0674535 0.0418838 0.0368644 0.071237 0.0419891 0.084166 0.0447159 0.0410916
internal_weight=188.432 138.224 50.2077 12.1126 8.25743 133.612 103.343 30.269 100.857 99.7228 92.935 89.8182 11.3462 7.33179 29.1474 22.7468 21.0948 78.472 5.88876 6.78783 20.4948 11.3382 10.2191 77.792 66.4321 11.3599 64.2082 10.6801 63.1271 59.5493
internal_count=139171 38108 101063 14357 7282 27738 20468 7270 16677 15919 15319 12125 4498 959 4534 4223 2596 7627 1425 600 1976 1634 993 6919 5844 1075 4439 787 3982 3970
is_linear=0
shrinkage=0.1


Tree=20
num_leaves=31
num_cat=0
split_feature=4 10 1 4 11 7 4 7 10 5 8 10 10 10 6 8 7 7 1 4 3 3 10 11 5 4 4 9 8 2
split_gain=39.6704 7.57974 7.34368 4.43444 12.7294 3.53318 4.12651 3.49545 6.58548 6.24092 4.2895 3.94092 3.43634 4.95849 2.86507 2.65338 6.79311 2.62944 2.41855 2.27016 2.11431 7.91831 2.25597 8.40762 5.42292 2.06959 1.99824 1.87698 1.68359 1.64618
threshold=332.50000000000006 268.50000000000006 356.50000000000006 28.500000000000004 0.66104108540600148 436.50000000000006 616.50000000000011 436.50000000000006 284.50000000000006 0.70834378383097485 0.62196852729691743 400.50000000000006 196.50000000000003 124.50000000000001 0.26940900000000007 0.59218491496687575 60.500000000000007 708.50000000000011 504.50000000000006 24.500000000000004 0.43176300000000006 0.50805650000000013 28.500000000000004 0.7706256947664718 0.94858774832653625 112.50000000000001 244.50000000000003 0.12530500000000003 0.64010630872320651 0.3306038193332243
decision_type=2 2 2 2 2 2 2 2 2 2 2 2 2 2 2 2 2 2 2 2 2 2 2 2 2 2 2 2 2 2
left_child=2 5 3 12 7 -2 18 8 14 10 -10 -9 13 19 -5 -16 -17 25 -7 20 -1 -22 23 -23 -25 -13 -27 -14 -12 -20
right_child=1 -3 -4 4 -6 6 -8 11 9 -11 28 17 27 -15 15 16 -18 -19 29 -21 21 22 -24 24 -26 26 -28 -29 -30 -31
leaf_value=0.10299598675166384 -0.10353153619771222 -0.10300838414460811 -0.10311827159944925 -0.10824294183959278 -0.12060086782925544 -0.10373758597512145 -0.10319234727016949 -0.1057622611889688 -0.10802102301453509 -0.11127560689039753 0.10040762206688053 -0.10979024068345063 -0.12641218310305521 -0.13631604619261659 0.085965403987983066 0.05560169440688776 -0.11251217267803866 -0.10653983595104287 -0.10426043136876749 -0.12721354752893174 -0.14812830151980771 -0.1878889549144738 0.070615587859004889 -0.15177364075774485 0.077816158419346526 0.098288181058606816 -0.10729048670309793 0.086959776854060852 -0.10607443891965913 0.10105152200627424
leaf_weight=5.3632898796349755 2.9062205741065545 34.541969344456447 4.1114769246778442 1.2293681986629987 6.311798739276127 0.76500968274194558 1.9434578067157415 1.2621827446855629 1.6827385173237397 6.9019708977430128 3.950321038311813 0.52490848978050664 0.42012780904770153 1.6383112686453376 10.658443405816799 11.415792408370178 3.0446458472288205 0.74447346679516968 0.42204031549044874 0.78238037414848705 2.1953298836015191 1.7487006348092133 18.176442189724185 1.1691472966922418 8.5698330444283783 15.483113462396428 0.48770939366659227 22.052102718036622 0.43874471617164079 5.2295762926805764
leaf_count=125 6165 86557 10248 1882 3806 1573 4783 2190 2398 5626 146 428 247 353 1038 1397 2235 1145 836 202 553 73 374 154 101 960 627 939 666 836
internal_value=0.00027461 -0.0797772 0.0284039 0.032687 0.0142433 -0.00855127 0.0244668 0.0289621 0.0120969 -0.0462232 0.0277235 0.0648048 0.0517308 0.0340221 0.0408135 0.0481086 0.0202053 0.0772923 0.063132 0.041365 0.0449083 0.0351297 0.048692 0.0140032 0.0502543 0.0855888 0.0920103 0.0829707 0.079767 0.0857196
internal_weight=176.172 45.8083 130.363 126.252 64.1362 11.2663 8.36008 57.8244 39.322 12.9738 6.0718 18.5024 62.1157 39.6434 26.3482 25.1189 14.4604 17.2402 6.41663 38.0051 37.2227 31.8595 29.6641 11.4877 9.73898 16.4957 15.9708 22.4722 4.38907 5.65162
internal_count=138663 100750 37913 27665 24544 14193 8028 20738 15388 8836 3210 5350 3121 1935 6552 4670 3632 3160 3245 1582 1380 1255 702 328 255 2015 1587 1186 812 1672
is_linear=0
shrinkage=0.1


Tree=21
num_leaves=31
num_cat=0
split_feature=4 10 1 4 11 6 4 3 10 9 2 5 5 5 5 3 9 10 11 10 8 5 5 1 11 4 4 4 4 9
split_gain=36.1951 7.09314 6.66857 3.99361 10.5611 4.68293 14.0853 5.23844 6.87854 3.51669 3.22768 4.54583 3.15952 5.49117 4.04563 3.69435 4.41068 3.82802 3.79925 3.17407 2.91856 2.57701 3.35164 2.20832 2.00644 5.30196 1.95727 4.10117 1.94027 1.41408
threshold=332.50000000000006 268.50000000000006 356.50000000000006 28.500000000000004 0.66104108540600148 0.38952600000000004 4.5000000000000009 0.54711900000000013 280.50000000000006 0.3880615 0.41435469440158157 0.57408958715412683 0.77753539960076024 0.82058498652774647 0.76935682791627424 0.40734900000000007 0.29235800000000006 999.50000000000011 0.52981646686123451 152.50000000000003 0.59218491496687575 0.70506234493118136 0.76399003053142234 712.50000000000011 0.56378078096463546 224.50000000000003 212.50000000000003 328.50000000000006 40.500000000000007 0.12530500000000003
decision_type=2 2 2 2 2 2 2 2 2 2 2 2 2 2 2 2 2 2 2 2 2 2 2 2 2 2 2 2 2 2
left_child=2 10 3 5 12 9 7 8 -7 29 11 -2 14 -14 15 21 17 -17 -18 -15 -16 26 -23 -13 25 -21 -5 -28 -26 -1
right_child=1 -3 -4 4 -6 6 -8 -9 -10 -11 -12 23 13 19 20 16 18 -19 -20 24 -22 22 -24 -25 28 -27 27 -29 -30 -31
leaf_value=-0.12194141898748533 -0.10314607179987417 -0.10256979021798007 -0.10267319833947325 0.088900672101302314 -0.11677325260125818 -0.19321903315403569 -0.13792479306593491 0.074776655342575479 0.096074502152920502 -0.14865351911746508 -0.10291543637131756 0.089366603337572167 -0.11311378206447331 -0.13161639135616304 0.10714861715431326 -0.10945164702576182 0.10557719608576606 0.058521368307097116 -0.10822784674266868 -0.11423965888850217 -0.11315327171409029 -0.10886770960455178 0.088517010633129972 -0.10379287437261359 0.10287367018163973 0.11712381517980924 -0.10548917405490565 0.10172020120598779 -0.11556134874148682 0.079157547909741249
leaf_weight=0.35324882750864972 2.1103195197065343 32.327106284006732 3.844465532078174 11.282315192569518 5.6820021545281625 1.8189284750260477 4.7955127122113472 17.128091827966273 1.499433417804539 0.70384880248457093 2.7281172352086278 5.2770864343619905 4.024885610502678 1.1589774361345906 9.9263645219616556 5.625482208299216 3.5452436740742996 1.7879472787899429 1.0856195289816239 2.1878972821868943 0.64013771613827053 2.0704066769685592 1.4718014008249154 0.66664521518396203 4.8235120710451156 1.8097939444123765 1.7707833822059904 2.0738599618780427 0.44408544804900874 34.486583254649304
leaf_count=267 5428 86557 10248 2024 3806 66 840 153 8 148 6138 1308 3272 355 431 4663 107 292 769 1290 455 2977 115 1319 58 29 3570 132 199 1639
internal_value=-4.66184e-05 -0.0791435 0.0270065 0.0310864 0.0131006 0.0492573 0.0163207 0.0524975 -0.062499 0.0726477 -0.00890677 0.0229364 0.0263422 -0.0139034 0.0404293 0.0220671 -0.0211123 -0.0689405 0.0554546 0.0244025 0.0938023 0.049924 -0.0268536 0.067702 0.0439186 -0.00949915 0.0679026 0.00628276 0.0844585 0.0771186
internal_weight=169.151 43.1093 126.041 122.197 61.4111 60.7856 25.242 20.4465 3.31836 35.5437 10.7822 8.05405 55.7291 14.4492 41.28 30.7135 12.0443 7.41343 4.63086 10.4243 10.5665 18.6692 3.54221 5.94373 9.26529 3.99769 15.127 3.84464 5.2676 34.8398
internal_count=138663 100750 37913 27665 24544 3121 1067 227 74 2054 14193 8055 20738 5203 15535 14649 5831 4955 876 1931 886 8818 3092 2627 1576 1319 5726 3702 257 1906
is_linear=0
shrinkage=0.1


Tree=22
num_leaves=31
num_cat=0
split_feature=1 10 4 9 9 0 0 4 11 5 6 4 5 5 5 3 0 0 8 10 6 4 5 8 1 11 1 1 1 7
split_gain=32.4963 5.68066 5.51651 4.17491 9.3611 3.90554 4.81258 3.38958 7.05201 3.32113 3.05271 10.3664 2.81829 5.23564 3.78378 2.82854 2.51788 3.4031 3.8272 2.51471 5.83929 2.01294 2.18271 1.92177 3.70733 3.16718 2.267 2.17436 2.09467 1.6675
threshold=296.50000000000006 268.50000000000006 332.50000000000006 0.3880615 0.42907700000000004 0.19354250000000003 0.16998300000000002 28.500000000000004 0.66104108540600148 0.94858774832653625 0.38952600000000004 4.5000000000000009 0.77753539960076024 0.82058498652774647 0.77493406280322763 0.46398900000000004 0.33679200000000004 0.35852050000000008 0.9227303646010242 108.50000000000001 0.46008300000000008 192.50000000000003 0.64536592521652281 0.4600103066981398 88.500000000000014 0.52476342907421569 124.50000000000001 164.50000000000003 220.50000000000003 32.500000000000007
decision_type=2 2 2 2 2 2 2 2 2 2 2 2 2 2 2 2 2 2 2 2 2 2 2 2 2 2 2 2 2 2
left_child=2 5 3 7 -5 6 -2 10 12 -6 29 19 14 -14 15 23 -15 -18 -19 20 -12 22 -3 26 -25 -26 -9 -27 -28 -1
right_child=1 21 -4 4 9 -7 -8 8 -10 -11 11 -13 13 16 -16 -17 17 18 -20 -21 -22 -23 -24 24 25 27 28 -29 -30 -31
leaf_value=0.097152751293321293 -0.10248764471332744 0.08736571454596366 -0.10240887831900364 -0.16130826770630757 -0.116363447898975 -0.10296427998104013 0.075839905272002239 -0.11022540621658838 -0.11359567063203041 0.081400876458645299 -0.18153931714297519 -0.1357945174630065 -0.11278956247943615 -0.11472369931411804 0.10558323972764977 -0.1081807107260767 0.10226944204905264 -0.11561260334701261 0.091735835546714828 0.093414008816801675 0.063183875535518547 -0.1022787047230071 -0.10336048010104291 0.053409346542110582 -0.10804622933981266 -0.11150965183082534 0.094763181313722744 0.057067225439349778 -0.10400174464704899 0.05264497210624175
leaf_weight=14.432222276460378 2.0800008221704029 1.2109150848700658 3.2254485673620357 3.5637667254777607 1.0385281325143294 3.297796177022974 5.5551300742663443 0.65573606622638791 3.7703558965586117 4.6569424625486135 1.2740764375776077 3.433127118216361 3.6801149760431136 1.0963653086801048 7.5317787225940256 1.4878470560943231 4.7376962396665458 2.0688492888002656 1.5624920455738904 8.2348255682736617 4.1537434346973896 30.283666698494926 1.189412531268317 10.44280928639637 3.5183392930048276 0.98640802287263785 8.4778156788379384 3.4108096425479744 0.56556562718469727 20.19878114585299
leaf_count=264 6424 262 9062 839 689 7139 1791 1140 2489 62 44 614 3003 774 272 886 233 793 15 47 47 86468 2783 2070 4504 734 1447 926 1233 1609
internal_value=-0.000648051 -0.0744195 0.0265733 0.0301916 -0.0341964 -0.0120214 0.027259 0.0358308 0.0183048 0.04534 0.0541247 0.0195489 0.0282069 -0.0115769 0.0423121 0.0261829 0.0277742 0.0464418 -0.0263948 0.0585833 0.00573981 -0.0952919 -0.0071431 0.033308 0.0142851 -0.0373305 0.0693142 0.0192511 0.0823326 0.0711933
internal_weight=161.821 43.6169 118.204 114.979 9.25924 10.9329 7.63513 105.72 53.993 5.69547 51.7268 17.0958 50.2226 13.1455 37.0771 29.5453 9.4654 8.36904 3.63134 13.6626 5.42782 32.684 2.40033 28.0575 18.3584 7.91556 9.69912 4.39722 9.04338 34.631
internal_count=138663 104867 33796 24734 1590 15354 8215 23144 20519 751 2625 752 18030 4818 13212 12940 1815 1041 808 138 91 89513 3045 12054 8234 6164 3820 1660 2680 1873
is_linear=0
shrinkage=0.1


Tree=23
num_leaves=31
num_cat=0
split_feature=1 10 4 0 0 9 4 4 0 9 5 0 9 3 2 3 7 2 10 9 1 8 8 8 1 2 4 4 7 4
split_gain=29.5499 5.30857 4.99949 3.48583 4.2265 3.38168 4.51878 6.62079 3.6427 5.45138 5.25313 3.42323 3.37514 4.99678 2.69803 2.46138 2.35172 2.62753 6.00426 4.38562 2.18133 4.3867 4.14174 3.24643 2.68934 1.82027 1.77821 1.96787 1.66057 1.42189
threshold=296.50000000000006 268.50000000000006 332.50000000000006 0.19354250000000003 0.16998300000000002 0.16107200000000002 4.5000000000000009 12.500000000000002 0.32653800000000005 0.33654800000000007 0.76935682791627424 0.35314900000000005 0.25720200000000004 0.52709950000000017 0.84293666903828424 0.45471200000000006 12.500000000000002 0.91835363031078843 108.50000000000001 0.34606900000000007 120.50000000000001 0.72077069061324239 0.76233900622467543 0.9227303646010242 128.50000000000003 0.50937508571428591 192.50000000000003 188.50000000000003 436.50000000000006 84.500000000000014
decision_type=2 2 2 2 2 2 2 2 2 2 2 2 2 2 2 2 2 2 2 2 2 2 2 2 2 2 2 2 2 2
left_child=2 3 5 4 -2 14 16 -8 12 10 -10 -12 13 -9 25 29 -7 19 -19 -18 21 -13 -23 -24 -22 -1 27 -3 -6 -14
right_child=1 26 -4 -5 28 6 7 8 9 -11 11 20 15 -15 -16 -17 17 18 -20 -21 24 22 23 -25 -26 -27 -28 -29 -30 -31
leaf_value=-0.1047412310163241 -0.10221007966143861 -0.10271911111586277 -0.10214124882887009 -0.102618668641203 -0.10366249063535078 0.079195702887043362 -0.13446132777429018 -0.10511174005645373 -0.10853145267675642 -0.11611787353338508 -0.11245046418286626 -0.11507279394183259 0.087763656070784485 0.10616222985295737 -0.16648823248386543 -0.10882429328658437 -0.15743205878126107 -0.18094118549995386 0.092398352765996686 0.074846085307335539 0.1171505222224713 0.091163093717442911 -0.12213827081537001 0.066078423538294156 -0.10933918072944336 0.067206782393874495 -0.10201067650614522 0.085622047691088235 0.086907984052137469 0.032826640500997394
leaf_weight=0.63031101998058758 1.9466845343413277 1.1153675373934702 3.0032485978736068 3.0532964234007522 0.50360444767284196 14.68707756418735 3.3281426936155176 3.3607104857073891 3.4378627403784838 4.4122138560633166 1.6421713574964112 2.131169633241373 10.978979582985636 1.6785468650050459 0.52119435148779203 0.8590041276474939 0.91512182448059132 1.7786835227161639 1.4659632910042999 7.2738890822511166 4.7277108110138206 6.458738266839644 2.1284178093192168 1.6093115214025604 0.5896496713394298 26.487352743337397 28.226923673442798 1.1037347686942667 4.9666668015997857 8.2525277704989985
leaf_count=2054 6424 2911 9062 7139 816 168 774 5046 2869 2301 902 1206 540 7 107 585 130 46 10 56 43 244 567 62 327 4162 86468 134 975 2528
internal_value=-0.00135081 -0.0741116 0.0251458 -0.0126891 0.0243317 0.0286415 0.0184144 0.00229559 0.0110037 -0.0144007 0.00534834 0.025647 0.0384375 -0.0347376 0.0588786 0.0567919 0.0527214 0.0187139 -0.0574437 0.048889 0.0384993 0.0154075 0.0426793 -0.0411 0.0920348 0.0632101 -0.0952345 -0.00904218 0.0693637 0.0641894
internal_weight=153.274 40.9163 112.358 10.4703 7.41696 109.355 81.7159 55.5952 52.267 27.1372 22.725 19.2872 25.1298 5.03926 27.6389 20.0905 26.1207 11.4337 3.24465 8.18901 17.645 12.3276 10.1965 3.73773 5.31736 27.1177 30.446 2.2191 5.47027 19.2315
internal_count=138663 104867 33796 15354 8215 24734 18411 18001 17227 8521 6220 3351 8706 5053 6323 3653 410 242 56 186 2449 2079 873 629 370 6216 89513 3045 1791 3068
is_linear=0
shrinkage=0.1


Tree=24
num_leaves=31
num_cat=0
split_feature=4 11 4 11 7 7 10 0 3 7 4 9 5 0 0 1 0 4 4 0 1 10 9 10 0 10 8 9 1 11
split_gain=26.7979 5.91693 4.97644 7.16639 3.36254 4.45811 6.00672 3.56509 3.56042 3.03192 4.52115 2.63796 2.60625 4.16533 2.23274 7.18731 4.17841 2.29548 5.5155 2.19168 2.1368 3.93331 1.60062 1.54815 1.51237 1.35875 1.34458 1.3419 3.64955 1.23843
threshold=416.50000000000006 0.7245552918265018 28.500000000000004 0.66104108540600148 708.50000000000011 436.50000000000006 284.50000000000006 0.27551300000000006 0.35827600000000004 456.50000000000006 212.50000000000003 0.0077135000000000007 0.64536592521652281 0.40930200000000005 0.38073700000000005 16.500000000000004 0.41564900000000005 4.5000000000000009 20.500000000000004 0.34362800000000004 48.500000000000007 280.50000000000006 0.36560100000000006 200.50000000000003 0.40930200000000005 748.50000000000011 0.48530299345702083 0.29406700000000002 68.500000000000014 0.73431708764738624
decision_type=2 2 2 2 2 2 2 2 2 2 2 2 2 2 2 2 2 2 2 2 2 2 2 2 2 2 2 2 2 2
left_child=2 -2 14 4 5 6 7 -4 19 26 12 24 -11 -14 22 16 -16 23 -19 -8 21 -9 25 -18 -10 -1 -7 -22 -29 -3
right_child=1 29 3 -5 -6 9 8 20 11 10 -12 -13 13 -15 15 -17 17 18 -20 -21 27 -23 -24 -25 -26 -27 -28 28 -30 -31
leaf_value=0.075890409177373205 -0.094478186261281683 0.11811979494858527 -0.10505123085599294 -0.11054733027728503 -0.10295213201579299 -0.10691355663987168 -0.10251180307720649 -0.12277868535200742 -0.10544951794256852 0.10760370089051029 -0.10375110920679709 -0.10709314418970375 -0.10809423854284886 0.10234317666602728 -0.14709311794901161 -0.12976174600147181 0.048868797297701085 -0.13249113574722374 0.062701195677399638 0.10522666897555669 0.06726668124236948 0.10412911256396006 -0.12320116137077855 0.10960821351104966 0.095101493344333154 -0.124623716038473 0.11356050615850691 0.075802816260308159 -0.11081777726667577 -0.10290734245705375
leaf_weight=21.074961829290267 28.908055545223764 1.6718904958688643 1.8676231867430058 5.1317265816905993 2.4025965345645082 0.28720517733018169 0.70090530905872506 1.9980335878790383 0.5598683935822909 4.5773403561324795 2.2169258647190864 8.4674265359790279 1.9149390068778305 1.8486190694820832 1.1245066557312444 2.6685974222200448 15.132026479579514 2.1692645401926702 4.3516838037758134 1.8439263152540661 14.00683069949446 1.2368391721975058 0.42546851123915885 5.806610317900776 1.1450668694451449 0.34345507435500522 7.5004078765050508 2.7281440199585623 1.7014360826433401 0.29880746309936501
leaf_count=1418 90267 128 4277 5133 6561 474 3136 976 908 240 5155 10618 2469 57 174 599 187 378 88 18 2548 8 179 36 24 131 338 144 1191 803
internal_value=-0.000318276 -0.0830489 0.021851 0.0026407 0.0128303 0.017925 -0.00240072 0.0275171 -0.0577772 0.0580948 0.02318 -0.0842423 0.0569169 -0.00472965 0.0443317 0.0271879 0.0418406 0.0495777 -0.00223166 0.0480107 0.0389418 -0.0360215 0.0688598 0.0657128 0.0292443 0.0726751 0.105429 0.052095 0.0041204 0.0846065
internal_weight=146.111 30.8788 115.232 62.1359 57.0041 54.6015 36.2561 23.5389 12.7172 18.3454 10.5578 10.1724 8.3409 3.76356 53.0966 31.2527 28.5841 27.4596 6.52095 2.54483 21.6713 3.23487 21.8439 20.9386 1.70494 21.4184 7.78761 18.4364 4.42958 1.9707
internal_count=138663 91198 47465 44275 39142 32581 23848 9144 14704 8733 7921 11550 2766 2526 3190 1462 863 689 466 3154 4867 984 1728 223 932 1549 812 3883 1335 931
is_linear=0
shrinkage=0.1


Tree=25
num_leaves=31
num_cat=0
split_feature=4 10 0 0 5 11 0 8 3 3 8 8 10 3 6 3 9 5 9 11 2 0 6 9 4 4 3 9 10 2
split_gain=30.2204 6.85297 4.55378 4.43197 3.70279 6.59014 3.08847 4.28166 3.38735 2.8889 6.09598 3.43669 3.25183 7.3762 2.89978 5.1916 2.87815 2.83204 2.78727 2.73435 2.4213 1.87234 4.12936 2.34719 2.53103 1.81311 1.52505 1.40779 6.41748 1.30093
threshold=276.50000000000006 268.50000000000006 0.19354250000000003 0.18866000000000002 0.74150374951011189 0.17436493860694077 0.38073700000000005 0.47333401289796601 0.47985800000000006 0.49523900000000004 0.78096455598061498 0.79153371870589362 280.50000000000006 0.54711900000000013 0.42419400000000007 0.56665050000000006 0.38147000000000003 0.82058498652774647 0.36999500000000002 0.30570226022490793 0.91835363031078843 0.30920400000000009 0.30920400000000009 0.29040500000000008 116.50000000000001 120.50000000000001 0.39685100000000006 0.32507300000000006 4.5000000000000009 0.41779846197662268
decision_type=2 2 2 2 2 2 2 2 2 2 2 2 2 2 2 2 2 2 2 2 2 2 2 2 2 2 2 2 2 2
left_child=4 2 3 19 5 26 7 -6 -8 -10 17 -12 13 -13 -15 -16 29 20 21 -2 -11 22 23 24 -9 -26 -1 -17 -29 -7
right_child=1 -3 -4 -5 6 16 8 18 9 10 11 12 -14 14 15 27 -18 -19 -20 -21 -22 -23 -24 -25 25 -27 -28 28 -30 -31
leaf_value=-0.10408983713827757 0.087569539765902094 -0.10169727176559205 -0.10231672706165838 0.12115323416489142 -0.10710238847509723 -0.0096770893936959611 -0.11217755503373537 -0.10996156292566953 0.076096243122251869 -0.12375786307835611 0.10362427991983225 -0.14562847423044917 0.084599673262775815 0.090709012327134672 -0.17983316868078728 0.045411637188995081 0.077317908658298601 -0.13490022644415339 -0.1116697407770305 -0.10228865215790206 0.10363997311657358 0.071468153537217291 -0.11320468801830504 0.092518961685277179 0.10449996203999333 -0.10649906160680558 0.091379262163604424 0.0842950583014168 -0.17917169722979584 -0.10598144164447527
leaf_weight=0.43564482632791524 1.1353300602640941 25.618269490383682 3.2387540378767881 3.4663527281954885 1.6074553970247496 1.7786659951671007 1.893876340240239 1.501161397522081 8.7052648946118989 0.77410079780383845 5.1994291106821064 3.1013689558021786 5.2546309031895353 4.5179800949990776 1.4620085931965121 7.527008245466277 1.244351087079848 3.6996203161106678 0.9451666266832025 2.2858743401011452 1.1851218333467841 41.30098771295161 1.8028516578779079 5.6977377354633063 1.7957301782153083 0.52670339788892295 4.7638071278634015 2.1411889158189301 1.627020723884925 6.6357662554728449
leaf_count=1791 386 91205 8549 336 2777 3264 1333 1576 593 303 55 415 119 25 94 39 328 941 874 6937 6 4395 1731 441 56 1036 515 27 90 8848
internal_value=0.00631534 -0.0741686 -0.0045246 0.0414604 0.0308778 -0.0157692 0.0376551 0.053709 0.0188433 0.0243337 0.0119848 0.0294958 0.0144584 -0.00362938 0.0218633 -0.00251844 -0.0646323 -0.0834189 0.0585344 -0.039284 0.0137937 0.0615913 0.025569 0.0518456 -0.00876393 0.0566476 0.0750016 0.0204325 -0.0294634 -0.0856244
internal_weight=152.869 35.7446 10.1263 6.88756 117.125 14.8582 102.266 55.1778 47.0886 45.1947 36.4895 30.8306 25.6312 20.3766 17.2752 12.7572 9.65878 5.65884 53.5703 3.4212 1.95922 52.6252 11.3242 9.52133 3.82359 2.32243 5.19945 11.2952 3.76821 8.41443
internal_count=139085 107413 16208 7659 31672 14746 16926 12886 4040 2707 2114 864 809 690 275 250 12440 1250 10109 7323 309 9235 4840 3109 2668 1092 2306 156 117 12112
is_linear=0
shrinkage=0.1


Tree=26
num_leaves=31
num_cat=0
split_feature=5 5 7 6 6 8 7 8 1 6 6 10 5 1 1 1 2 8 10 1 6 6 7 9 8 8 5 10 1 9
split_gain=27.6121 5.22182 3.91818 4.76099 4.50401 3.49674 3.5011 2.59926 2.46443 2.44096 6.8604 2.86015 2.11822 1.92858 1.86161 2.34882 2.37745 1.84781 5.72169 2.03048 1.92553 3.52432 3.53767 3.45391 2.31941 3.24439 3.95448 2.10637 3.73811 2.88075
threshold=0.74150374951011189 0.57408958715412683 436.50000000000006 0.23858600000000002 0.25402800000000009 0.25141999531842746 912.50000000000011 0.4600103066981398 88.500000000000014 0.27551300000000006 0.30676300000000006 748.50000000000011 0.75910307293852008 64.500000000000014 204.50000000000003 100.50000000000001 0.60217095951464839 0.69014318477031955 744.50000000000011 72.500000000000014 0.37609900000000007 0.40710450000000004 8.5000000000000018 0.33654800000000007 0.77073071890541789 0.79153371870589362 0.87511274107134207 280.50000000000006 12.500000000000002 0.40490700000000007
decision_type=2 2 2 2 2 2 2 2 2 2 2 2 2 2 2 2 2 2 2 2 2 2 2 2 2 2 2 2 2 2
left_child=1 -1 8 5 -5 6 -4 -2 13 12 -11 14 -9 -3 15 17 -17 18 -12 20 23 22 -22 -19 -23 -26 -27 28 29 -28
right_child=7 2 3 4 -6 -7 -8 9 -10 10 11 -13 -14 -15 -16 16 -18 19 -20 -21 21 24 -24 -25 25 26 27 -29 -30 -31
leaf_value=-0.10145802540802613 -0.1041177693542361 -0.10544634507582658 0.088032936526217173 0.088456098992636997 -0.10348374472171151 -0.10183986460709815 -0.10134759659522781 -0.10625216559284484 -0.10350993589413765 -0.11217273913550369 -0.11917020870402378 -0.12691604299051851 0.073281172911011425 0.039669814015443422 -0.10542320956612466 -0.10821317815858217 0.080781484953024729 0.07710509432225704 0.11578300374518276 -0.11090946798665641 0.066586081036150879 -0.13879117603882177 -0.13725841552702031 -0.12486377645302255 0.10071354473622962 -0.12003557555977257 -0.0039964918986591996 0.10118157256753275 -0.13875318456227784 0.080354736666899421
leaf_weight=16.892441321862862 1.3159255597420259 1.3883097357029353 2.6816920924466121 6.7619742615352134 1.4923785415885502 5.5219549653556896 1.5349386308080282 0.6789939627051379 8.9447288913870562 3.2879407117288784 2.7955398780613896 1.0699667600856617 20.450820205936907 2.6908520386059536 0.89701164193684135 0.69497912944644014 15.744168172765056 15.486782147956546 1.6472041606903074 0.93500998747185704 1.3004160730051801 0.74458788911579432 2.4655454607272986 0.89569636009400788 6.7951047055248663 1.8032377946074145 9.2702664393000394 3.8485279639717183 1.375605605659074 7.1882043281802899
leaf_count=65535 2772 1501 1249 2216 4198 16963 5952 841 22553 2556 1388 742 2588 918 1790 436 1464 634 1 505 50 257 524 225 125 566 170 53 206 107
internal_value=0.00576979 -0.0567224 -0.0323584 -0.00211968 0.0537536 -0.0494774 0.0190946 0.0355037 -0.0741341 0.0373526 0.0292082 0.0354097 0.067512 -0.0097193 0.0377603 0.03952 0.0727916 0.0298482 -0.0320583 0.0351263 0.0377945 0.0244837 -0.0668693 0.0660626 0.0355724 0.0398599 0.0222532 0.0340867 0.0196079 0.0328437
internal_weight=148.601 47.9093 31.0168 17.9929 8.25435 9.73859 4.21663 100.692 13.0239 99.3756 78.2458 74.9579 21.1298 4.07916 73.8879 72.9909 16.4391 56.5517 4.44274 52.109 51.174 34.7915 3.76596 16.3825 31.0255 30.2809 23.4858 21.6826 17.8341 16.4585
internal_count=139085 121085 55550 30578 6414 24164 7201 18000 24972 15228 11799 9243 3429 2419 8501 6711 1900 4811 1389 3422 2917 2058 574 859 1484 1227 1102 536 483 277
is_linear=0
shrinkage=0.1


Tree=27
num_leaves=31
num_cat=0
split_feature=5 5 7 6 6 8 7 7 1 7 10 3 2 9 7 0 9 0 10 0 6 9 6 2 0 9 5 5 3 3
split_gain=24.882 4.7659 3.5293 4.33924 3.9394 3.10624 3.10652 2.39939 2.8054 2.22115 3.06109 2.55817 2.19563 2.14877 1.99533 1.58529 2.632 4.15847 3.77563 3.70481 3.20802 2.27824 2.00888 5.79152 1.60932 3.29894 1.52885 1.64011 1.50511 3.74449
threshold=0.74150374951011189 0.57408958715412683 436.50000000000006 0.23858600000000002 0.25402800000000009 0.25141999531842746 912.50000000000011 456.50000000000006 16.500000000000004 436.50000000000006 748.50000000000011 0.40832500000000005 0.64965620595362805 0.47546400000000005 364.50000000000006 0.38073700000000005 0.38147000000000003 0.40393100000000004 108.50000000000001 0.4974365 0.41735800000000006 0.36999500000000002 0.39318850000000011 0.77422791700080018 0.44152800000000009 0.27673300000000006 0.70834378383097485 0.69878597070523185 0.50805650000000013 0.46008300000000008
decision_type=2 2 2 2 2 2 2 2 2 2 2 2 2 2 2 2 2 2 2 2 2 2 2 2 2 2 2 2 2 2
left_child=1 -1 12 5 -5 6 -4 9 -9 10 11 -2 -3 14 15 21 17 -17 19 -19 -18 28 -21 -24 -20 -26 27 -14 29 -13
right_child=7 2 3 4 -6 -7 -8 8 -10 -11 -12 13 26 -15 -16 16 20 18 24 22 -22 -23 23 -25 25 -27 -28 -29 -30 -31
leaf_value=-0.10123810712503373 -0.1083253694143833 -0.10274999002824287 0.083883313045820793 0.083717578479305887 -0.10300775698399307 -0.10158294474429477 -0.10115844206802367 0.090195955760891275 -0.10696470067395976 0.098920392451736075 -0.11223391861407746 0.062481626755361688 -0.10330221308466681 -0.14902491681856489 -0.10994893992251734 -0.1221059874225118 -0.11970281022010708 -0.13266150223748249 0.075733999058865215 0.086789053001030125 0.080666796044712774 -0.11361912978256201 0.10357155817244364 -0.1725753920837664 -0.12862971604720863 0.041465776181335942 -0.1061523029825438 0.077046318535257216 0.0876268267542957 -0.024726444136631109
leaf_weight=15.596713995859316 1.2220271200640116 8.3023175837734033 2.4963651129510271 6.4881665775901629 1.368098739578272 5.1307867488721968 1.4252531178863139 1.0282687857106787 2.4206333657057257 5.4132737487961995 1.4293081252253603 24.961214738170387 0.67750592645461427 0.61377048460417327 0.89260812390420952 2.218487002450277 0.86295258415338949 2.6797838544298456 9.0075107279117237 2.1266890602419153 10.79034473717911 0.80002254835562681 1.4618529081344607 1.5806773134972898 1.3432756312686231 7.5428583787579555 1.1742241711617678 1.9718680364894678 11.496327417582505 6.1333526811504262
leaf_count=65535 1660 22310 1249 2216 4198 16963 5952 32 3727 265 1292 3736 1275 238 762 881 293 568 628 22 394 693 1 87 293 222 1121 266 339 1867
internal_value=0.00504036 -0.0566526 -0.0327023 -0.00317734 0.051201 -0.0503704 0.0166327 0.0337145 -0.0481825 0.0367655 0.0329054 0.035325 -0.0738726 0.0374022 0.0387661 0.0403653 0.0259018 0.0092614 0.0205826 -0.0372417 0.065829 0.05357 0.012225 -0.0398943 0.045947 0.0157532 -0.0111699 0.030927 0.0567104 0.04528
internal_weight=140.657 44.6313 29.0346 16.9087 7.85627 9.0524 3.92162 96.0252 3.4489 92.5763 87.1631 85.7338 12.1259 84.5117 83.898 83.0053 39.6144 27.9611 25.7426 7.849 11.6533 43.3909 5.16922 3.04253 17.8936 8.88613 3.8236 2.64937 42.5909 31.0946
internal_count=139085 121085 55550 30578 6414 24164 7201 18000 3759 14241 13976 12684 24972 11024 10786 10024 3389 2702 1821 678 687 6635 110 88 1143 515 2662 1541 5942 5603
is_linear=0
shrinkage=0.1


Tree=28
num_leaves=31
num_cat=0
split_feature=4 10 0 5 0 9 11 4 4 9 6 10 4 9 9 7 9 9 9 6 6 6 9 7 0 11 11 10 4 11
split_gain=23.127 5.27583 3.45378 3.1361 2.88861 2.68151 7.20169 2.20753 4.56658 1.84848 1.80727 1.80433 1.9141 1.79256 2.43129 2.04597 1.62841 1.77172 2.60051 1.9042 1.61666 3.58055 2.65921 2.33391 3.52031 2.36712 1.57257 1.39845 1.5053 1.37241
threshold=276.50000000000006 268.50000000000006 0.19354250000000003 0.77493406280322763 0.16998300000000002 0.29235800000000006 0.22841542942910723 116.50000000000001 72.500000000000014 0.32775900000000008 0.26818850000000011 796.50000000000011 272.50000000000006 0.29968300000000009 0.36560100000000006 4.5000000000000009 0.47546400000000005 0.40490700000000007 0.3880615 0.41735800000000006 0.37609900000000007 0.42419400000000007 0.36999500000000002 32.500000000000007 0.42297400000000007 0.73431708764738624 0.25678646458406118 204.50000000000003 4.5000000000000009 0.67895260909760069
decision_type=2 2 2 2 2 2 2 2 2 2 2 2 2 2 2 2 2 2 2 2 2 2 2 2 2 2 2 2 2 2
left_child=3 2 4 5 -2 6 11 8 16 10 -9 -1 -13 -7 15 -15 17 18 20 -19 26 22 -22 24 -23 27 -5 28 -26 -16
right_child=1 -3 -4 7 -6 13 -8 9 -10 -11 -12 12 -14 14 29 -17 -18 19 -20 -21 21 23 -24 -25 25 -27 -28 -29 -30 -31
leaf_value=0.08989092215468944 -0.10116458926274235 -0.10111097084876107 -0.10160468460175281 -0.10858956788146457 0.070894445991724619 0.087488863418609591 -0.090842200717491384 -0.10552088215985278 -0.10878715056495701 -0.10747050352604751 0.093998829360308747 -0.10477887569760638 0.097457109825466015 0.099200533766986024 0.094688157422492938 -0.10676268626899446 -0.14465797308592529 -0.11481143488304035 -0.14828144559641129 0.08824759392459669 -0.12125832139808571 -0.14498850135012362 0.060601562070667685 0.091126461133030759 0.025055446555366907 -0.14265039343299507 0.048680505470824822 0.078366819726648773 -0.12239425094782348 -0.10251946120721707
leaf_weight=4.0622844663448658 1.2337595844364857 20.764410948373552 2.7020523468527244 0.64839746378129248 4.6656057870859513 3.9793784533248964 8.563124853797488 0.47442970919655358 2.3102522549015694 0.52036018919898275 10.540973380368085 1.2114274767445747 0.7626178677601273 0.60935757483821396 2.4309795600129296 2.3131549693935085 0.50484967202646558 0.48864200094249 0.81460647925268759 8.411941687576471 3.0400940936742726 1.3384113371139417 1.0931620159535667 4.6436065142625003 5.8033756306394899 0.78017493872903365 32.718116154152085 4.8140143764321692 0.78615652892040078 0.41281358676496882
leaf_count=1459 6117 91205 8549 478 1542 400 13117 602 2164 562 1078 2212 61 15 173 2176 158 257 197 219 811 291 49 162 36 78 4018 85 136 678
internal_value=0.00454273 -0.0738306 -0.00797408 0.0266562 0.034911 -0.00475805 -0.0318738 0.0362482 0.0294046 0.0767052 0.0854056 0.0517787 -0.0266506 0.0358625 0.000234727 -0.0638184 0.0342503 0.0356318 0.0290969 0.0770997 0.0316927 0.0108464 -0.0731601 0.0299604 0.00895551 0.0258666 0.0456243 0.0373957 0.00746413 0.0660609
